{"learner":{"attributes":{"scikit_learn":"{\"_estimator_type\": \"classifier\"}"},"feature_names":["jitter","shimmer","apq","crr","vrr","prr","mean_f0","median_f0","min_f0","max_f0","mean_energy","median_energy","std_energy","min_energy","max_energy","vsa_triangle","fcr","vai","f2_ratio"],"feature_types":["float","float","float","float","float","float","float","float","float","float","float","float","float","float","float","float","float","float","float"],"gradient_booster":{"model":{"cats":{"enc":[],"feature_segments":[],"sorted_idx":[]},"gbtree_model_param":{"num_parallel_tree":"1","num_trees":"900"},"iteration_indptr":[0,3,6,9,12,15,18,21,24,27,30,33,36,39,42,45,48,51,54,57,60,63,66,69,72,75,78,81,84,87,90,93,96,99,102,105,108,111,114,117,120,123,126,129,132,135,138,141,144,147,150,153,156,159,162,165,168,171,174,177,180,183,186,189,192,195,198,201,204,207,210,213,216,219,222,225,228,231,234,237,240,243,246,249,252,255,258,261,264,267,270,273,276,279,282,285,288,291,294,297,300,303,306,309,312,315,318,321,324,327,330,333,336,339,342,345,348,351,354,357,360,363,366,369,372,375,378,381,384,387,390,393,396,399,402,405,408,411,414,417,420,423,426,429,432,435,438,441,444,447,450,453,456,459,462,465,468,471,474,477,480,483,486,489,492,495,498,501,504,507,510,513,516,519,522,525,528,531,534,537,540,543,546,549,552,555,558,561,564,567,570,573,576,579,582,585,588,591,594,597,600,603,606,609,612,615,618,621,624,627,630,633,636,639,642,645,648,651,654,657,660,663,666,669,672,675,678,681,684,687,690,693,696,699,702,705,708,711,714,717,720,723,726,729,732,735,738,741,744,747,750,753,756,759,762,765,768,771,774,777,780,783,786,789,792,795,798,801,804,807,810,813,816,819,822,825,828,831,834,837,840,843,846,849,852,855,858,861,864,867,870,873,876,879,882,885,888,891,894,897,900],"tree_info":[0,1,2,0,1,2,0,1,2,0,1,2,0,1,2,0,1,2,0,1,2,0,1,2,0,1,2,0,1,2,0,1,2,0,1,2,0,1,2,0,1,2,0,1,2,0,1,2,0,1,2,0,1,2,0,1,2,0,1,2,0,1,2,0,1,2,0,1,2,0,1,2,0,1,2,0,1,2,0,1,2,0,1,2,0,1,2,0,1,2,0,1,2,0,1,2,0,1,2,0,1,2,0,1,2,0,1,2,0,1,2,0,1,2,0,1,2,0,1,2,0,1,2,0,1,2,0,1,2,0,1,2,0,1,2,0,1,2,0,1,2,0,1,2,0,1,2,0,1,2,0,1,2,0,1,2,0,1,2,0,1,2,0,1,2,0,1,2,0,1,2,0,1,2,0,1,2,0,1,2,0,1,2,0,1,2,0,1,2,0,1,2,0,1,2,0,1,2,0,1,2,0,1,2,0,1,2,0,1,2,0,1,2,0,1,2,0,1,2,0,1,2,0,1,2,0,1,2,0,1,2,0,1,2,0,1,2,0,1,2,0,1,2,0,1,2,0,1,2,0,1,2,0,1,2,0,1,2,0,1,2,0,1,2,0,1,2,0,1,2,0,1,2,0,1,2,0,1,2,0,1,2,0,1,2,0,1,2,0,1,2,0,1,2,0,1,2,0,1,2,0,1,2,0,1,2,0,1,2,0,1,2,0,1,2,0,1,2,0,1,2,0,1,2,0,1,2,0,1,2,0,1,2,0,1,2,0,1,2,0,1,2,0,1,2,0,1,2,0,1,2,0,1,2,0,1,2,0,1,2,0,1,2,0,1,2,0,1,2,0,1,2,0,1,2,0,1,2,0,1,2,0,1,2,0,1,2,0,1,2,0,1,2,0,1,2,0,1,2,0,1,2,0,1,2,0,1,2,0,1,2,0,1,2,0,1,2,0,1,2,0,1,2,0,1,2,0,1,2,0,1,2,0,1,2,0,1,2,0,1,2,0,1,2,0,1,2,0,1,2,0,1,2,0,1,2,0,1,2,0,1,2,0,1,2,0,1,2,0,1,2,0,1,2,0,1,2,0,1,2,0,1,2,0,1,2,0,1,2,0,1,2,0,1,2,0,1,2,0,1,2,0,1,2,0,1,2,0,1,2,0,1,2,0,1,2,0,1,2,0,1,2,0,1,2,0,1,2,0,1,2,0,1,2,0,1,2,0,1,2,0,1,2,0,1,2,0,1,2,0,1,2,0,1,2,0,1,2,0,1,2,0,1,2,0,1,2,0,1,2,0,1,2,0,1,2,0,1,2,0,1,2,0,1,2,0,1,2,0,1,2,0,1,2,0,1,2,0,1,2,0,1,2,0,1,2,0,1,2,0,1,2,0,1,2,0,1,2,0,1,2,0,1,2,0,1,2,0,1,2,0,1,2,0,1,2,0,1,2,0,1,2,0,1,2,0,1,2,0,1,2,0,1,2,0,1,2,0,1,2,0,1,2,0,1,2,0,1,2,0,1,2,0,1,2,0,1,2,0,1,2,0,1,2,0,1,2,0,1,2,0,1,2,0,1,2,0,1,2,0,1,2,0,1,2,0,1,2,0,1,2,0,1,2,0,1,2,0,1,2,0,1,2,0,1,2,0,1,2,0,1,2,0,1,2,0,1,2,0,1,2,0,1,2,0,1,2,0,1,2,0,1,2,0,1,2,0,1,2,0,1,2,0,1,2,0,1,2,0,1,2,0,1,2,0,1,2,0,1,2,0,1,2,0,1,2,0,1,2,0,1,2,0,1,2,0,1,2,0,1,2,0,1,2,0,1,2,0,1,2,0,1,2,0,1,2,0,1,2,0,1,2,0,1,2,0,1,2,0,1,2,0,1,2,0,1,2,0,1,2,0,1,2,0,1,2,0,1,2,0,1,2,0,1,2,0,1,2,0,1,2,0,1,2,0,1,2,0,1,2,0,1,2,0,1,2,0,1,2,0,1,2,0,1,2,0,1,2,0,1,2,0,1,2,0,1,2,0,1,2],"trees":[{"base_weights":[3.7229402E-8,-5.728704E-1,4.6920732E-1,3.3804886E-2,-6.3030297E-1,-1.2357535E-1,6.9372314E-1,-2.1402593E-1,-2.0742978E-1,2.0652762E-1,-1.7573437E-1,3.5629827E-1,4.096214E-1,-1.2655744E-1,3.3804886E-2,-2.1968332E-1,6.188719E-1,3.1601865E-2,-1.273312E-1,-2.858729E-2,8.263929E-1,3.1601865E-2,2.8682667E-1],"categories":[],"categories_nodes":[],"categories_segments":[],"categories_sizes":[],"default_left":[0,0,0,0,0,0,0,0,0,0,0,0,0,0,0,0,0,0,0,0,0,0,0],"id":0,"left_children":[1,3,5,-1,7,9,11,13,-1,-1,-1,-1,15,-1,-1,17,19,-1,-1,-1,21,-1,-1],"loss_changes":[9.736351E0,7.1317863E-1,2.7358975E0,0E0,2.3881769E-1,2.7748334E0,1.561439E0,2.7803504E-1,0E0,0E0,0E0,0E0,1.5569868E0,0E0,0E0,2.7303305E-1,1.3178046E0,0E0,0E0,0E0,5.14771E-1,0E0,0E0],"parents":[2147483647,0,0,1,1,2,2,4,4,5,5,6,6,7,7,12,12,15,15,16,16,20,20],"right_children":[2,4,6,-1,8,10,12,14,-1,-1,-1,-1,16,-1,-1,18,20,-1,-1,-1,22,-1,-1],"split_conditions":[7.6446635E-1,6.722745E-1,8.7670934E-1,3.3804886E-2,6.925972E-1,1E0,8.721507E-1,6.295028E-1,-2.0742978E-1,2.0652762E-1,-1.7573437E-1,3.5629827E-1,9.764248E-1,-1.2655744E-1,3.3804886E-2,7.165341E-1,9.251399E-1,3.1601865E-2,-1.273312E-1,-2.858729E-2,9.27825E-1,3.1601865E-2,2.8682667E-1],"split_indices":[3,10,8,0,12,12,15,12,0,0,0,0,1,0,0,0,14,0,0,0,16,0,0],"split_type":[0,0,0,0,0,0,0,0,0,0,0,0,0,0,0,0,0,0,0,0,0,0,0],"sum_hessian":[3.422222E1,1.5309464E1,1.8912756E1,1.1090534E0,1.4200411E1,5.3189297E0,1.3593826E1,2.39465E0,1.1805761E1,1.7518517E0,3.567078E0,3.8024688E0,9.791357E0,1.2855966E0,1.1090534E0,2.430864E0,7.360493E0,1.1271604E0,1.3037037E0,1.7790122E0,5.581481E0,1.1271604E0,4.4543204E0],"tree_param":{"num_deleted":"0","num_feature":"19","num_nodes":"23","size_leaf_vector":"1"}},{"base_weights":[-9.476574E-8,-4.3940493E-1,3.7094566E-1,1.2940285E-1,-6.428413E-1,-1.6135043E-1,5.3705966E-1,-4.2246934E-2,-2.068657E-1,3.1286678E-1,3.8886565E-1,7.1672815E-1,1.484148E-1,3.052655E-2,9.1717994E-1,5.6842595E-1,-1.10589884E-1,3.1286678E-1,8.762332E-2,-2.9528214E-2,2.788732E-1,8.762332E-2,-7.189238E-2],"categories":[],"categories_nodes":[],"categories_segments":[],"categories_sizes":[],"default_left":[0,0,0,0,0,0,0,0,0,0,0,0,0,0,0,0,0,0,0,0,0,0,0],"id":1,"left_children":[1,3,5,-1,7,-1,9,-1,-1,-1,11,13,15,-1,17,19,21,-1,-1,-1,-1,-1,-1],"loss_changes":[5.9040546E0,3.2144847E0,3.2539E0,0E0,2.2749615E-1,0E0,8.7675E-1,0E0,0E0,0E0,1.0623293E0,6.4767647E-1,1.130431E0,0E0,4.1831255E-2,1.0322394E0,4.2893595E-1,0E0,0E0,0E0,0E0,0E0,0E0],"parents":[2147483647,0,0,1,1,2,2,4,4,6,6,10,10,11,11,12,12,14,14,15,15,16,16],"right_children":[2,4,6,-1,8,-1,10,-1,-1,-1,12,14,16,-1,18,20,22,-1,-1,-1,-1,-1,-1],"split_conditions":[8.361814E-1,4.9430147E-1,8.721507E-1,1.2940285E-1,7.376911E-1,-1.6135043E-1,9.27825E-1,-4.2246934E-2,-2.068657E-1,3.1286678E-1,8.7807125E-1,4.4523865E-1,8.952854E-1,3.052655E-2,7.6446635E-1,7.820656E-1,8.5006297E-1,3.1286678E-1,8.762332E-2,-2.9528214E-2,2.788732E-1,8.762332E-2,-7.189238E-2],"split_indices":[17,16,15,0,0,0,16,0,0,0,3,3,6,0,3,1,0,0,0,0,0,0,0],"split_type":[0,0,0,0,0,0,0,0,0,0,0,0,0,0,0,0,0,0,0,0,0,0,0],"sum_hessian":[3.4222225E1,1.5581071E1,1.8641153E1,2.7386832E0,1.2842387E1,2.5349796E0,1.6106174E1,1.4349794E0,1.1407408E1,2.2814817E0,1.3824692E1,5.0111113E0,8.8135805E0,1.6024692E0,3.4086423E0,2.906173E0,5.9074078E0,2.2814817E0,1.1271605E0,1.2765433E0,1.6296297E0,1.1271605E0,4.780247E0],"tree_param":{"num_deleted":"0","num_feature":"19","num_nodes":"23","size_leaf_vector":"1"}},{"base_weights":[4.2306137E-8,1.0506673E0,-6.5261537E-1,4.1177914E-1,-1.525348E-1,-1.1650967E-2,-2.139075E-1],"categories":[],"categories_nodes":[],"categories_segments":[],"categories_sizes":[],"default_left":[0,0,0,0,0,0,0],"id":2,"left_children":[1,3,5,-1,-1,-1,-1],"loss_changes":[2.483691E1,7.663929E0,8.0076885E-1,0E0,0E0,0E0,0E0],"parents":[2147483647,0,0,1,1,2,2],"right_children":[2,4,6,-1,-1,-1,-1],"split_conditions":[6.1091924E-1,7.1440053E-1,8.2543826E-1,4.1177914E-1,-1.525348E-1,-1.1650967E-2,-2.139075E-1],"split_indices":[16,3,15,0,0,0,0],"split_type":[0,0,0,0,0,0,0],"sum_hessian":[3.422222E1,1.28786E1,2.134362E1,1.0773663E1,2.1049383E0,2.0596707E0,1.9283949E1],"tree_param":{"num_deleted":"0","num_feature":"19","num_nodes":"7","size_leaf_vector":"1"}},{"base_weights":[1.7370177E-3,-4.5910475E-1,3.8881803E-1,-1.86809E-1,-6.30887E-2,-1.2903288E-1,5.93653E-1,1.03834465E-1,-3.0238456E-1,1.6602819E-1,-1.6566047E-1,2.679247E-1,3.7113988E-1,3.2805324E-2,-1.4482811E-1,-4.4954926E-2,5.312046E-1,1.2795448E-2,6.1442465E-1,3.0858153E-2,2.1106225E-1],"categories":[],"categories_nodes":[],"categories_segments":[],"categories_sizes":[],"default_left":[0,0,0,0,0,0,0,0,0,0,0,0,0,0,0,0,0,0,0,0,0],"id":3,"left_children":[1,3,5,-1,7,9,11,-1,13,-1,-1,-1,15,-1,-1,-1,17,-1,19,-1,-1],"loss_changes":[6.3089347E0,1.0068045E0,2.1152937E0,0E0,6.758379E-1,2.116052E0,5.980263E-1,0E0,3.6578068E-1,0E0,0E0,0E0,8.896947E-1,0E0,0E0,0E0,2.8487206E-1,0E0,2.2227335E-1,0E0,0E0],"parents":[2147483647,0,0,1,1,2,2,4,4,5,5,6,6,8,8,12,12,16,16,18,18],"right_children":[2,4,6,-1,8,10,12,-1,14,-1,-1,-1,16,-1,-1,-1,18,-1,20,-1,-1],"split_conditions":[8.7807125E-1,8.396056E-1,8.7670934E-1,-1.86809E-1,4.4523865E-1,1E0,8.721507E-1,1.03834465E-1,7.8671294E-1,1.6602819E-1,-1.6566047E-1,2.679247E-1,9.764248E-1,3.2805324E-2,-1.4482811E-1,-4.4954926E-2,9.2367613E-1,1.2795448E-2,9.27825E-1,3.0858153E-2,2.1106225E-1],"split_indices":[3,16,8,0,3,12,15,0,6,0,0,0,1,0,0,0,6,0,16,0,0],"split_type":[0,0,0,0,0,0,0,0,0,0,0,0,0,0,0,0,0,0,0,0,0],"sum_hessian":[3.3366634E1,1.5147095E1,1.821954E1,1.0314029E1,4.8330665E0,5.268957E0,1.29505825E1,1.618681E0,3.2143855E0,1.898828E0,3.370129E0,4.2363014E0,8.714281E0,1.0991548E0,2.1152306E0,2.0630715E0,6.6512094E0,1.1882083E0,5.4630013E0,1.1300826E0,4.332918E0],"tree_param":{"num_deleted":"0","num_feature":"19","num_nodes":"21","size_leaf_vector":"1"}},{"base_weights":[1.1565671E-2,-4.6088842E-1,2.5161254E-1,-1.8326358E-1,5.2616302E-2,-1.6604276E-1,4.4620562E-1,8.319676E-1,2.789236E-1,7.24031E-2,2.8242707E-1,6.4388984E-1,1.3486847E-1,6.1506823E-2,2.2764128E-1,5.101915E-1,-7.4740954E-2,2.0302753E-1,6.1182547E-2,5.7481203E-2,-5.5478573E-2],"categories":[],"categories_nodes":[],"categories_segments":[],"categories_sizes":[],"default_left":[0,0,0,0,0,0,0,0,0,0,0,0,0,0,0,0,0,0,0,0,0],"id":4,"left_children":[1,3,5,-1,-1,-1,7,9,11,-1,-1,13,15,-1,-1,17,19,-1,-1,-1,-1],"loss_changes":[3.9942331E0,1.2403572E0,3.9007478E0,0E0,0E0,0E0,1.0157275E0,1.1829257E-1,7.013575E-1,0E0,0E0,4.5036197E-2,9.8329014E-1,0E0,0E0,8.811152E-2,2.872687E-1,0E0,0E0,0E0,0E0],"parents":[2147483647,0,0,1,1,2,2,6,6,7,7,8,8,11,11,12,12,15,15,16,16],"right_children":[2,4,6,-1,-1,-1,8,10,12,-1,-1,14,16,-1,-1,18,20,-1,-1,-1,-1],"split_conditions":[5.3975105E-1,6.1091924E-1,8.721507E-1,-1.8326358E-1,5.2616302E-2,-1.6604276E-1,1E0,8.598917E-1,7.098698E-1,7.24031E-2,2.8242707E-1,5.936852E-1,9.9606556E-1,6.1506823E-2,2.2764128E-1,9.764248E-1,8.521147E-1,2.0302753E-1,6.1182547E-2,5.7481203E-2,-5.5478573E-2],"split_indices":[5,16,15,0,0,0,14,10,7,0,0,6,18,0,0,1,9,0,0,0,0],"split_type":[0,0,0,0,0,0,0,0,0,0,0,0,0,0,0,0,0,0,0,0,0],"sum_hessian":[3.3196537E1,1.08742075E1,2.2322329E1,8.832117E0,2.0420904E0,3.9861574E0,1.833617E1,4.3443675E0,1.3991804E1,1.1803174E0,3.1640499E0,2.977785E0,1.1014019E1,1.1956478E0,1.7821374E0,3.432978E0,7.581041E0,1.4399654E0,1.9930124E0,2.0022712E0,5.5787697E0],"tree_param":{"num_deleted":"0","num_feature":"19","num_nodes":"21","size_leaf_vector":"1"}},{"base_weights":[-1.3315483E-2,7.571445E-1,-5.875615E-1,2.9299304E-1,-1.4046732E-1,-6.405869E-3,-1.9476347E-1],"categories":[],"categories_nodes":[],"categories_segments":[],"categories_sizes":[],"default_left":[0,0,0,0,0,0,0],"id":5,"left_children":[1,3,5,-1,-1,-1,-1],"loss_changes":[1.5569847E1,4.5014114E0,6.895137E-1,0E0,0E0,0E0,0E0],"parents":[2147483647,0,0,1,1,2,2],"right_children":[2,4,6,-1,-1,-1,-1],"split_conditions":[6.1091924E-1,7.1440053E-1,8.2543826E-1,2.9299304E-1,-1.4046732E-1,-6.405869E-3,-1.9476347E-1],"split_indices":[16,3,15,0,0,0,0],"split_type":[0,0,0,0,0,0,0],"sum_hessian":[3.3185875E1,1.403575E1,1.9150126E1,1.2075636E1,1.9601144E0,2.0125697E0,1.7137556E1],"tree_param":{"num_deleted":"0","num_feature":"19","num_nodes":"7","size_leaf_vector":"1"}},{"base_weights":[5.8574216E-3,-4.454002E-1,2.9147473E-1,4.4587493E-2,-5.0918543E-1,-1.1865151E-1,4.335941E-1,-3.5779055E-2,-1.7303139E-1,1.426431E-1,-1.5460819E-1,2.1899205E-1,2.5735626E-1,-2.0431575E-1,4.022876E-1,3.492194E-2,-1.2277216E-1,-2.7542999E-2,5.369148E-1,2.6358409E-2,1.825737E-1],"categories":[],"categories_nodes":[],"categories_segments":[],"categories_sizes":[],"default_left":[0,0,0,0,0,0,0,0,0,0,0,0,0,0,0,0,0,0,0,0,0],"id":6,"left_children":[1,3,5,-1,7,9,11,-1,-1,-1,-1,-1,13,15,17,-1,-1,-1,19,-1,-1],"loss_changes":[4.316918E0,5.677762E-1,1.2462702E0,0E0,2.4624228E-1,1.6734858E0,6.1853933E-1,0E0,0E0,0E0,0E0,0E0,8.3333683E-1,2.6750702E-1,6.4002955E-1,0E0,0E0,0E0,1.7582369E-1,0E0,0E0],"parents":[2147483647,0,0,1,1,2,2,4,4,5,5,6,6,12,12,13,13,14,14,18,18],"right_children":[2,4,6,-1,8,10,12,-1,-1,-1,-1,-1,14,16,18,-1,-1,-1,20,-1,-1],"split_conditions":[7.6446635E-1,6.722745E-1,8.7670934E-1,4.4587493E-2,6.284725E-1,1E0,8.721507E-1,-3.5779055E-2,-1.7303139E-1,1.426431E-1,-1.5460819E-1,2.1899205E-1,9.251399E-1,7.8632987E-1,9.764248E-1,3.492194E-2,-1.2277216E-1,-2.7542999E-2,9.27825E-1,2.6358409E-2,1.825737E-1],"split_indices":[3,10,8,0,13,12,15,0,0,0,0,0,14,14,1,0,0,0,16,0,0],"split_type":[0,0,0,0,0,0,0,0,0,0,0,0,0,0,0,0,0,0,0,0,0],"sum_hessian":[3.148656E1,1.1987549E1,1.9499014E1,1.0334115E0,1.0954137E1,5.06053E0,1.4438483E1,2.0266187E0,8.927518E0,1.9466262E0,3.113904E0,4.2124395E0,1.0226044E1,2.345338E0,7.8807054E0,1.0827346E0,1.2626035E0,1.7555767E0,6.1251287E0,1.1493326E0,4.9757957E0],"tree_param":{"num_deleted":"0","num_feature":"19","num_nodes":"21","size_leaf_vector":"1"}},{"base_weights":[2.115266E-2,-4.040403E-1,2.15095E-1,8.155755E-2,-5.1754427E-1,-1.5129916E-1,3.697955E-1,-1.7197338E-1,-2.8282404E-2,6.723796E-1,2.3381355E-1,5.932186E-2,2.2817941E-1,2.0105754E-1,1.22154675E-1,-1.2260926E-1,2.1729828E-1,-1.1972465E-1,9.34829E-2],"categories":[],"categories_nodes":[],"categories_segments":[],"categories_sizes":[],"default_left":[0,0,0,0,0,0,0,0,0,0,0,0,0,0,0,0,0,0,0],"id":7,"left_children":[1,3,5,-1,7,-1,9,-1,-1,11,13,-1,-1,-1,15,-1,17,-1,-1],"loss_changes":[2.7562194E0,9.452454E-1,2.7332382E0,0E0,1.6577482E-1,0E0,6.414285E-1,0E0,0E0,7.927227E-2,6.453514E-1,0E0,0E0,0E0,7.508005E-1,0E0,8.0843216E-1,0E0,0E0],"parents":[2147483647,0,0,1,1,2,2,4,4,6,6,9,9,10,10,14,14,16,16],"right_children":[2,4,6,-1,8,-1,10,-1,-1,12,14,-1,-1,-1,16,-1,18,-1,-1],"split_conditions":[5.3975105E-1,8.823504E-1,8.721507E-1,8.155755E-2,5.485822E-1,-1.5129916E-1,1E0,-1.7197338E-1,-2.8282404E-2,8.598917E-1,8.335396E-1,5.932186E-2,2.2817941E-1,2.0105754E-1,7.7143896E-1,-1.2260926E-1,8.8985986E-1,-1.1972465E-1,9.34829E-2],"split_indices":[5,6,15,0,3,0,14,0,0,10,5,0,0,0,13,0,5,0,0],"split_type":[0,0,0,0,0,0,0,0,0,0,0,0,0,0,0,0,0,0,0],"sum_hessian":[3.1369854E1,9.487175E0,2.1882679E1,1.1635094E0,8.323666E0,3.4727616E0,1.8409918E1,7.042571E0,1.2810944E0,4.485114E0,1.3924804E1,1.2110105E0,3.2741034E0,1.8179336E0,1.2106871E1,1.339206E0,1.0767665E1,1.0000715E0,9.767593E0],"tree_param":{"num_deleted":"0","num_feature":"19","num_nodes":"19","size_leaf_vector":"1"}},{"base_weights":[-2.7912077E-2,5.997375E-1,-5.3747284E-1,2.3419254E-1,-1.3007249E-1,-3.2691348E-3,-1.8058744E-1],"categories":[],"categories_nodes":[],"categories_segments":[],"categories_sizes":[],"default_left":[0,0,0,0,0,0,0],"id":8,"left_children":[1,3,5,-1,-1,-1,-1],"loss_changes":[1.0348329E1,3.0525413E0,5.988531E-1,0E0,0E0,0E0,0E0],"parents":[2147483647,0,0,1,1,2,2],"right_children":[2,4,6,-1,-1,-1,-1],"split_conditions":[6.1091924E-1,7.1440053E-1,8.2543826E-1,2.3419254E-1,-1.3007249E-1,-3.2691348E-3,-1.8058744E-1],"split_indices":[16,3,15,0,0,0,0],"split_type":[0,0,0,0,0,0,0],"sum_hessian":[3.0348291E1,1.3519155E1,1.6829138E1,1.171305E1,1.806104E0,1.9636106E0,1.4865527E1],"tree_param":{"num_deleted":"0","num_feature":"19","num_nodes":"7","size_leaf_vector":"1"}},{"base_weights":[1.1795803E-2,-3.987281E-1,2.4681032E-1,4.016295E-2,-4.6440792E-1,-1.17737085E-1,3.716037E-1,-2.9916348E-2,-1.6057809E-1,1.204795E-1,-1.452804E-1,1.8862033E-1,2.233606E-1,-1.876402E-1,3.5222116E-1,4.266397E-2,-1.2165866E-1,-2.1610897E-2,4.6314967E-1,2.534573E-2,1.5676962E-1],"categories":[],"categories_nodes":[],"categories_segments":[],"categories_sizes":[],"default_left":[0,0,0,0,0,0,0,0,0,0,0,0,0,0,0,0,0,0,0,0,0],"id":9,"left_children":[1,3,5,-1,7,9,11,-1,-1,-1,-1,-1,13,15,17,-1,-1,-1,19,-1,-1],"loss_changes":[3.0075302E0,4.595536E-1,9.442004E-1,0E0,2.1370625E-1,1.2998766E0,4.30799E-1,0E0,0E0,0E0,0E0,0E0,6.516731E-1,2.942412E-1,4.4586957E-1,0E0,0E0,0E0,1.1520743E-1,0E0,0E0],"parents":[2147483647,0,0,1,1,2,2,4,4,5,5,6,6,12,12,13,13,14,14,18,18],"right_children":[2,4,6,-1,8,10,12,-1,-1,-1,-1,-1,14,16,18,-1,-1,-1,20,-1,-1],"split_conditions":[7.6446635E-1,6.722745E-1,8.7670934E-1,4.016295E-2,6.284725E-1,1E0,8.721507E-1,-2.9916348E-2,-1.6057809E-1,1.204795E-1,-1.452804E-1,1.8862033E-1,9.764248E-1,1E0,9.251399E-1,4.266397E-2,-1.2165866E-1,-2.1610897E-2,9.27825E-1,2.534573E-2,1.5676962E-1],"split_indices":[3,10,8,0,13,12,15,0,0,0,0,0,1,5,14,0,0,0,16,0,0],"split_type":[0,0,0,0,0,0,0,0,0,0,0,0,0,0,0,0,0,0,0,0,0],"sum_hessian":[2.9152857E1,1.0359772E1,1.8793085E1,1.0233111E0,9.336461E0,4.8070974E0,1.3985988E1,1.910469E0,7.425992E0,1.9493711E0,2.857726E0,3.9292982E0,1.0056689E1,2.2915716E0,7.765118E0,1.0497328E0,1.2418388E0,1.6821539E0,6.082964E0,1.1535001E0,4.929464E0],"tree_param":{"num_deleted":"0","num_feature":"19","num_nodes":"21","size_leaf_vector":"1"}},{"base_weights":[2.0761577E-2,-3.5834023E-1,1.7843062E-1,7.702355E-2,-4.7637883E-1,-1.3939695E-1,3.0329788E-1,-1.6055323E-1,-1.8629901E-2,1.9094267E-1,2.07254E-1,1.9337839E-1,1.0775665E-1,-1.293054E-1,1.9881268E-1,1.6496998E-1,2.866345E-2],"categories":[],"categories_nodes":[],"categories_segments":[],"categories_sizes":[],"default_left":[0,0,0,0,0,0,0,0,0,0,0,0,0,0,0,0,0],"id":10,"left_children":[1,3,5,-1,7,-1,9,-1,-1,-1,11,-1,13,-1,15,-1,-1],"loss_changes":[1.8758109E0,7.9290295E-1,1.9136741E0,0E0,1.6406035E-1,0E0,4.790218E-1,0E0,0E0,0E0,6.3993925E-1,0E0,7.9615337E-1,0E0,4.2141807E-1,0E0,0E0],"parents":[2147483647,0,0,1,1,2,2,4,4,6,6,10,10,12,12,14,14],"right_children":[2,4,6,-1,8,-1,10,-1,-1,-1,12,-1,14,-1,16,-1,-1],"split_conditions":[5.3975105E-1,8.9098287E-1,8.721507E-1,7.702355E-2,4.626705E-1,-1.3939695E-1,7.8389335E-1,-1.6055323E-1,-1.8629901E-2,1.9094267E-1,8.0048174E-1,1.9337839E-1,6.9934356E-1,-1.293054E-1,9.27825E-1,1.6496998E-1,2.866345E-2],"split_indices":[5,8,15,0,3,0,4,0,0,0,18,0,16,0,16,0,0],"split_type":[0,0,0,0,0,0,0,0,0,0,0,0,0,0,0,0,0],"sum_hessian":[2.931274E1,8.236364E0,2.1076376E1,1.1369187E0,7.099446E0,2.9845006E0,1.8091875E1,5.9615026E0,1.1379435E0,2.7891946E0,1.530268E1,1.8208077E0,1.3481873E1,1.4093373E0,1.20725355E1,1.7608974E0,1.0311638E1],"tree_param":{"num_deleted":"0","num_feature":"19","num_nodes":"17","size_leaf_vector":"1"}},{"base_weights":[-3.5299152E-2,5.143141E-1,-4.987299E-1,2.0338719E-1,-1.2030229E-1,-3.9012704E-4,-1.7024274E-1],"categories":[],"categories_nodes":[],"categories_segments":[],"categories_sizes":[],"default_left":[0,0,0,0,0,0,0],"id":11,"left_children":[1,3,5,-1,-1,-1,-1],"loss_changes":[7.364083E0,2.257695E0,5.343337E-1,0E0,0E0,0E0,0E0],"parents":[2147483647,0,0,1,1,2,2],"right_children":[2,4,6,-1,-1,-1,-1],"split_conditions":[6.1091924E-1,7.1440053E-1,8.2543826E-1,2.0338719E-1,-1.2030229E-1,-3.9012704E-4,-1.7024274E-1],"split_indices":[16,3,15,0,0,0,0],"split_type":[0,0,0,0,0,0,0],"sum_hessian":[2.6904848E1,1.2257761E1,1.4647088E1,1.0618658E1,1.6391028E0,1.9021907E0,1.2744897E1],"tree_param":{"num_deleted":"0","num_feature":"19","num_nodes":"7","size_leaf_vector":"1"}},{"base_weights":[1.5566113E-2,-3.2446265E-1,2.3387863E-1,-1.4916974E-1,-3.3680085E-2,-1.1432572E-1,3.634486E-1,7.342905E-2,-2.3265691E-1,1.035587E-1,-1.3665736E-1,-1.0184288E-2,4.2650065E-1,-1.09049685E-1,9.210522E-3,-4.3298434E-3,4.745952E-1,-1.6323235E-2,5.4680175E-1,6.0980897E-2,1.7647745E-1],"categories":[],"categories_nodes":[],"categories_segments":[],"categories_sizes":[],"default_left":[0,0,0,0,0,0,0,0,0,0,0,0,0,0,0,0,0,0,0,0,0],"id":12,"left_children":[1,3,5,-1,7,9,11,-1,13,-1,-1,-1,15,-1,-1,-1,17,-1,19,-1,-1],"loss_changes":[2.1386263E0,5.501375E-1,8.312625E-1,0E0,3.493811E-1,1.0207752E0,3.4011686E-1,0E0,1.3490307E-1,0E0,0E0,0E0,2.4627423E-1,0E0,0E0,0E0,4.1972446E-1,0E0,9.648323E-3,0E0,0E0],"parents":[2147483647,0,0,1,1,2,2,4,4,5,5,6,6,8,8,12,12,16,16,18,18],"right_children":[2,4,6,-1,8,10,12,-1,14,-1,-1,-1,16,-1,-1,-1,18,-1,20,-1,-1],"split_conditions":[8.7807125E-1,8.396056E-1,8.7670934E-1,-1.4916974E-1,4.4523865E-1,1E0,1E0,7.342905E-2,7.6446635E-1,1.035587E-1,-1.3665736E-1,-1.0184288E-2,7.579102E-1,-1.09049685E-1,9.210522E-3,-4.3298434E-3,8.948262E-1,-1.6323235E-2,9.764248E-1,6.0980897E-2,1.7647745E-1],"split_indices":[3,16,8,0,3,12,7,0,3,0,0,0,18,0,0,0,12,0,1,0,0],"split_type":[0,0,0,0,0,0,0,0,0,0,0,0,0,0,0,0,0,0,0,0,0],"sum_hessian":[2.6787565E1,1.0283873E1,1.6503693E1,6.0056233E0,4.2782493E0,4.507624E0,1.1996069E1,1.6871624E0,2.5910869E0,1.9157741E0,2.59185E0,1.7059058E0,1.0290163E1,1.4770267E0,1.1140603E0,1.0808429E0,9.20932E0,1.1356533E0,8.073667E0,1.505061E0,6.568606E0],"tree_param":{"num_deleted":"0","num_feature":"19","num_nodes":"21","size_leaf_vector":"1"}},{"base_weights":[2.3338946E-2,-3.1921396E-1,1.5475471E-1,7.3755115E-2,-4.4199637E-1,-1.2929949E-1,2.59289E-1,-1.5027857E-1,-1.9875549E-2,1.739897E-1,1.761891E-1,-8.557435E-2,2.5557426E-1,-3.3447559E-3,3.7890536E-1,6.0886934E-2,-1.1696467E-1,1.8277179E-1,5.9785664E-2],"categories":[],"categories_nodes":[],"categories_segments":[],"categories_sizes":[],"default_left":[0,0,0,0,0,0,0,0,0,0,0,0,0,0,0,0,0,0,0],"id":13,"left_children":[1,3,5,-1,7,-1,9,-1,-1,-1,11,-1,13,15,17,-1,-1,-1,-1],"loss_changes":[1.3125036E0,6.71072E-1,1.3946877E0,0E0,1.2218499E-1,0E0,3.882426E-1,0E0,0E0,0E0,6.6092384E-1,0E0,4.55467E-1,5.2413017E-1,2.7755046E-1,0E0,0E0,0E0,0E0],"parents":[2147483647,0,0,1,1,2,2,4,4,6,6,10,10,12,12,13,13,14,14],"right_children":[2,4,6,-1,8,-1,10,-1,-1,-1,12,-1,14,16,18,-1,-1,-1,-1],"split_conditions":[5.3975105E-1,8.823504E-1,8.721507E-1,7.3755115E-2,5.485822E-1,-1.2929949E-1,6.138152E-1,-1.5027857E-1,-1.9875549E-2,1.739897E-1,1E0,-8.557435E-2,9.9636686E-1,8.7670934E-1,9.9606556E-1,6.0886934E-2,-1.1696467E-1,1.8277179E-1,5.9785664E-2],"split_indices":[5,6,15,0,3,0,7,0,0,0,11,0,8,8,18,0,0,0,0],"split_type":[0,0,0,0,0,0,0,0,0,0,0,0,0,0,0,0,0,0,0],"sum_hessian":[2.7058464E1,7.1061883E0,1.9952276E1,1.0895553E0,6.016633E0,2.5485523E0,1.7403725E1,4.912923E0,1.1037102E0,2.3512566E0,1.5052467E1,1.8288453E0,1.3223622E1,4.580431E0,8.643191E0,3.2961566E0,1.2842742E0,2.739014E0,5.9041777E0],"tree_param":{"num_deleted":"0","num_feature":"19","num_nodes":"19","size_leaf_vector":"1"}},{"base_weights":[-4.450962E-2,4.5497206E-1,-4.6738616E-1,1.8269777E-1,-1.1070783E-1,2.0807746E-3,-1.6232115E-1],"categories":[],"categories_nodes":[],"categories_segments":[],"categories_sizes":[],"default_left":[0,0,0,0,0,0,0],"id":14,"left_children":[1,3,5,-1,-1,-1,-1],"loss_changes":[5.3728704E0,1.7105682E0,4.833777E-1,0E0,0E0,0E0,0E0],"parents":[2147483647,0,0,1,1,2,2],"right_children":[2,4,6,-1,-1,-1,-1],"split_conditions":[6.1091924E-1,7.1440053E-1,8.2543826E-1,1.8269777E-1,-1.1070783E-1,2.0807746E-3,-1.6232115E-1],"split_indices":[16,3,15,0,0,0,0],"split_type":[0,0,0,0,0,0,0],"sum_hessian":[2.3430666E1,1.0707535E1,1.272313E1,9.241127E0,1.4664084E0,1.8325399E0,1.0890591E1],"tree_param":{"num_deleted":"0","num_feature":"19","num_nodes":"7","size_leaf_vector":"1"}},{"base_weights":[1.7110663E-2,-2.9716644E-1,2.0379479E-1,1.5769158E-2,-4.031424E-1,-1.0379332E-1,3.1594124E-1,-1.4190177E-2,-1.4726546E-1,9.350541E-2,-1.2890188E-1,-1.2006381E-2,3.724444E-1,-8.5416215E-4,4.126849E-1,-1.3856781E-2,1.430248E-1],"categories":[],"categories_nodes":[],"categories_segments":[],"categories_sizes":[],"default_left":[0,0,0,0,0,0,0,0,0,0,0,0,0,0,0,0,0],"id":15,"left_children":[1,3,5,-1,7,9,11,-1,-1,-1,-1,-1,13,-1,15,-1,-1],"loss_changes":[1.5641271E0,3.9022166E-1,6.0783714E-1,0E0,2.1896422E-1,8.3889985E-1,2.655866E-1,0E0,0E0,0E0,0E0,0E0,1.6508043E-1,0E0,3.1038356E-1,0E0,0E0],"parents":[2147483647,0,0,1,1,2,2,4,4,5,5,6,6,12,12,14,14],"right_children":[2,4,6,-1,8,10,12,-1,-1,-1,-1,-1,14,-1,16,-1,-1],"split_conditions":[8.7807125E-1,9.3712413E-1,8.7670934E-1,1.5769158E-2,6.925972E-1,1E0,1E0,-1.4190177E-2,-1.4726546E-1,9.350541E-2,-1.2890188E-1,-1.2006381E-2,7.579102E-1,-8.5416215E-4,8.948262E-1,-1.3856781E-2,1.430248E-1],"split_indices":[3,9,8,0,12,12,7,0,0,0,0,0,18,0,12,0,0],"split_type":[0,0,0,0,0,0,0,0,0,0,0,0,0,0,0,0,0],"sum_hessian":[2.4627272E1,8.956858E0,1.5670414E1,2.2001534E0,6.756705E0,4.206789E0,1.1463626E1,1.6409352E0,5.1157694E0,1.8683312E0,2.3384576E0,1.6103464E0,9.853279E0,1.0441891E0,8.80909E0,1.1133711E0,7.695719E0],"tree_param":{"num_deleted":"0","num_feature":"19","num_nodes":"17","size_leaf_vector":"1"}},{"base_weights":[2.7804313E-2,1.5010408E-1,-4.983535E-2,-3.901154E-1,5.9047174E-2,-2.7441617E-2,-1.3798246E-1,-1.191824E-1,1.4042908E-1,-1.18058935E-1,2.784929E-1,-1.2036875E-1,5.5251196E-2,1.6954859E-1,9.665961E-2,8.488783E-2,-1.0710576E-1,9.504165E-2,-1.2936038E-2],"categories":[],"categories_nodes":[],"categories_segments":[],"categories_sizes":[],"default_left":[0,0,0,0,0,0,0,0,0,0,0,0,0,0,0,0,0,0,0],"id":16,"left_children":[1,-1,3,5,7,-1,-1,-1,9,11,13,-1,15,-1,17,-1,-1,-1,-1],"loss_changes":[9.761405E-1,0E0,8.8177705E-1,7.7833295E-2,7.4012184E-1,0E0,0E0,0E0,6.1735225E-1,3.3646515E-1,5.1735705E-1,0E0,5.5649024E-1,0E0,2.5739294E-1,0E0,0E0,0E0,0E0],"parents":[2147483647,0,0,2,2,3,3,4,4,8,8,9,9,10,10,12,12,14,14],"right_children":[2,-1,4,6,8,-1,-1,-1,10,12,14,-1,16,-1,18,-1,-1,-1,-1],"split_conditions":[6.138152E-1,1.5010408E-1,5.485822E-1,7.9732716E-1,8.721507E-1,-2.7441617E-2,-1.3798246E-1,-1.191824E-1,9.9636686E-1,1E0,8.7807125E-1,-1.2036875E-1,8.7670934E-1,1.6954859E-1,9.764248E-1,8.488783E-2,-1.0710576E-1,9.504165E-2,-1.2936038E-2],"split_indices":[7,0,3,2,15,0,0,0,8,12,3,0,8,0,1,0,0,0,0],"split_type":[0,0,0,0,0,0,0,0,0,0,0,0,0,0,0,0,0,0,0],"sum_hessian":[2.4926853E1,2.7492805E0,2.2177572E1,4.7499886E0,1.7427584E1,1.3378892E0,3.4120996E0,2.0501945E0,1.537739E1,5.404252E0,9.973138E0,1.552515E0,3.8517368E0,3.052535E0,6.9206023E0,2.6833208E0,1.168416E0,2.1958265E0,4.724776E0],"tree_param":{"num_deleted":"0","num_feature":"19","num_nodes":"19","size_leaf_vector":"1"}},{"base_weights":[-5.4760184E-2,4.1014066E-1,-4.4079822E-1,1.6750282E-1,-1.01610295E-1,-1.7671718E-3,-1.5527013E-1],"categories":[],"categories_nodes":[],"categories_segments":[],"categories_sizes":[],"default_left":[0,0,0,0,0,0,0],"id":17,"left_children":[1,3,5,-1,-1,-1,-1],"loss_changes":[3.9805E0,1.3125483E0,3.9923668E-1,0E0,0E0,0E0,0E0],"parents":[2147483647,0,0,1,1,2,2],"right_children":[2,4,6,-1,-1,-1,-1],"split_conditions":[6.1091924E-1,7.1440053E-1,8.2543826E-1,1.6750282E-1,-1.01610295E-1,-1.7671718E-3,-1.5527013E-1],"split_indices":[16,3,15,0,0,0,0],"split_type":[0,0,0,0,0,0,0],"sum_hessian":[2.0171913E1,9.122891E0,1.1049022E1,7.828047E0,1.294845E0,1.8192761E0,9.229746E0],"tree_param":{"num_deleted":"0","num_feature":"19","num_nodes":"7","size_leaf_vector":"1"}},{"base_weights":[1.5529961E-2,-3.1337032E-1,1.5913399E-1,1.9211631E-2,-3.8430563E-1,-1.2100731E-1,2.5531292E-1,-1.4022973E-2,-1.4252433E-1,7.928958E-2,-1.230753E-1,-3.679769E-2,3.2233357E-1,1.5191329E-1,1.9455704E-1,-2.448173E-2,2.750882E-1,7.2410638E-3,9.612933E-2],"categories":[],"categories_nodes":[],"categories_segments":[],"categories_sizes":[],"default_left":[0,0,0,0,0,0,0,0,0,0,0,0,0,0,0,0,0,0,0],"id":18,"left_children":[1,3,5,-1,7,9,11,-1,-1,-1,-1,-1,13,-1,15,-1,17,-1,-1],"loss_changes":[1.1648862E0,2.257089E-1,4.9152237E-1,0E0,1.759268E-1,6.7099017E-1,3.70072E-1,0E0,0E0,0E0,0E0,0E0,1.6859543E-1,0E0,2.0766246E-1,0E0,6.823796E-2,0E0,0E0],"parents":[2147483647,0,0,1,1,2,2,4,4,5,5,6,6,12,12,14,14,16,16],"right_children":[2,4,6,-1,8,10,12,-1,-1,-1,-1,-1,14,-1,16,-1,18,-1,-1],"split_conditions":[7.8389335E-1,8.151207E-1,8.7670934E-1,1.9211631E-2,6.284725E-1,1E0,8.7807125E-1,-1.4022973E-2,-1.4252433E-1,7.928958E-2,-1.230753E-1,-3.679769E-2,8.721507E-1,1.5191329E-1,9.687838E-1,-2.448173E-2,9.251399E-1,7.2410638E-3,9.612933E-2],"split_indices":[4,11,8,0,13,12,3,0,0,0,0,0,15,0,1,0,14,0,0],"split_type":[0,0,0,0,0,0,0,0,0,0,0,0,0,0,0,0,0,0,0],"sum_hessian":[2.2607561E1,6.5116243E0,1.6095938E1,1.0456262E0,5.465998E0,4.04778E0,1.2048157E1,1.4794331E0,3.986565E0,1.7726493E0,2.2751307E0,1.6895502E0,1.0358607E1,3.030544E0,7.328063E0,1.6514513E0,5.676612E0,1.1032066E0,4.5734053E0],"tree_param":{"num_deleted":"0","num_feature":"19","num_nodes":"19","size_leaf_vector":"1"}},{"base_weights":[2.9869137E-2,-2.1499681E-1,1.5139334E-1,2.4104948E-1,-1.293017E-1,-9.9510245E-2,2.1309635E-1,-2.9895004E-2,1.3108344E-1,1.6408587E-1,1.2436341E-1,-2.5371885E-1,2.3847647E-1,-1.3778064E-2,-1.0941165E-1,-4.3422922E-2,3.032543E-1,1.8941303E-3,1.1135699E-1],"categories":[],"categories_nodes":[],"categories_segments":[],"categories_sizes":[],"default_left":[0,0,0,0,0,0,0,0,0,0,0,0,0,0,0,0,0,0,0],"id":19,"left_children":[1,3,5,7,-1,-1,9,-1,-1,-1,11,13,15,-1,-1,-1,17,-1,-1],"loss_changes":[7.419986E-1,9.235842E-1,5.6313133E-1,2.6484188E-1,0E0,0E0,3.839891E-1,0E0,0E0,0E0,6.364223E-1,6.5797344E-2,3.1123304E-1,0E0,0E0,0E0,1.9000924E-1,0E0,0E0],"parents":[2147483647,0,0,1,1,2,2,3,3,6,6,10,10,11,11,12,12,16,16],"right_children":[2,4,6,8,-1,-1,10,-1,-1,-1,12,14,16,-1,-1,-1,18,-1,-1],"split_conditions":[8.361814E-1,8.0048174E-1,8.721507E-1,7.155139E-1,-1.293017E-1,-9.9510245E-2,7.165124E-1,-2.9895004E-2,1.3108344E-1,1.6408587E-1,1E0,8.785195E-1,8.598917E-1,-1.3778064E-2,-1.0941165E-1,-4.3422922E-2,8.7040293E-1,1.8941303E-3,1.1135699E-1],"split_indices":[17,18,15,18,0,0,0,0,0,0,12,12,10,0,0,0,0,0,0],"split_type":[0,0,0,0,0,0,0,0,0,0,0,0,0,0,0,0,0,0,0],"sum_hessian":[2.2841322E1,7.3208866E0,1.5520434E1,2.3157852E0,5.0051017E0,1.2622306E0,1.4258204E1,1.0247897E0,1.2909954E0,1.9095424E0,1.2348661E1,2.5793374E0,9.769324E0,1.3902609E0,1.1890764E0,1.234093E0,8.535232E0,1.7926522E0,6.7425795E0],"tree_param":{"num_deleted":"0","num_feature":"19","num_nodes":"19","size_leaf_vector":"1"}},{"base_weights":[-5.8705207E-2,3.7789002E-1,-4.1635188E-1,1.5679356E-1,-9.384454E-2,-5.238733E-3,-1.4884439E-1],"categories":[],"categories_nodes":[],"categories_segments":[],"categories_sizes":[],"default_left":[0,0,0,0,0,0,0],"id":20,"left_children":[1,3,5,-1,-1,-1,-1],"loss_changes":[3.0266294E0,1.043217E0,3.2799602E-1,0E0,0E0,0E0,0E0],"parents":[2147483647,0,0,1,1,2,2],"right_children":[2,4,6,-1,-1,-1,-1],"split_conditions":[6.1091924E-1,7.1440053E-1,8.2543826E-1,1.5679356E-1,-9.384454E-2,-5.238733E-3,-1.4884439E-1],"split_indices":[16,3,15,0,0,0,0],"split_type":[0,0,0,0,0,0,0],"sum_hessian":[1.7375616E1,7.7987423E0,9.576874E0,6.64866E0,1.1500822E0,1.7996264E0,7.777247E0],"tree_param":{"num_deleted":"0","num_feature":"19","num_nodes":"7","size_leaf_vector":"1"}},{"base_weights":[2.1339532E-2,-3.217287E-1,1.3030872E-1,3.1519208E-2,-1.3160267E-1,-1.1549781E-1,1.922801E-1,1.6127393E-1,7.332521E-2,-2.2896348E-1,1.588207E-1,-8.876231E-4,-1.0109275E-1,-4.5006435E-2,2.0942368E-1,-2.564161E-2,8.1324205E-2],"categories":[],"categories_nodes":[],"categories_segments":[],"categories_sizes":[],"default_left":[0,0,0,0,0,0,0,0,0,0,0,0,0,0,0,0,0],"id":21,"left_children":[1,3,5,-1,-1,-1,7,-1,9,11,13,-1,-1,-1,15,-1,-1],"loss_changes":[8.5769016E-1,3.2302982E-1,6.256139E-1,0E0,0E0,0E0,6.2129164E-1,0E0,3.754889E-1,7.962261E-2,2.0050535E-1,0E0,0E0,0E0,1.9978434E-1,0E0,0E0],"parents":[2147483647,0,0,1,1,2,2,6,6,8,8,9,9,10,10,14,14],"right_children":[2,4,6,-1,-1,-1,8,-1,10,12,14,-1,-1,-1,16,-1,-1],"split_conditions":[6.15103E-1,6.6003674E-1,6.158268E-1,3.1519208E-2,-1.3160267E-1,-1.1549781E-1,7.8992575E-1,1.6127393E-1,8.9098287E-1,8.3497477E-1,8.948262E-1,-8.876231E-4,-1.0109275E-1,-4.5006435E-2,7.8389335E-1,-2.564161E-2,8.1324205E-2],"split_indices":[16,0,0,0,0,0,13,0,8,7,12,0,0,0,4,0,0],"split_type":[0,0,0,0,0,0,0,0,0,0,0,0,0,0,0,0,0],"sum_hessian":[2.0821342E1,4.548573E0,1.6272768E1,1.0001559E0,3.548417E0,1.1873494E0,1.5085419E1,2.9635892E0,1.212183E1,2.3025537E0,9.819277E0,1.0768172E0,1.2257366E0,1.1057769E0,8.713499E0,1.4399923E0,7.273507E0],"tree_param":{"num_deleted":"0","num_feature":"19","num_nodes":"17","size_leaf_vector":"1"}},{"base_weights":[2.6509516E-2,1.2672655E-1,-4.3912195E-2,-3.447834E-1,4.2227965E-2,-1.5269328E-2,-1.2482011E-1,-1.88964E-1,1.708888E-1,-1.1842424E-1,-2.2563176E-2,1.4106171E-1,2.8537305E-2,-1.0303113E-1,2.0339571E-1,-1.13475285E-1,1.5169361E-1,1.0170855E-1,-4.406785E-3,1.0490451E-1,5.169184E-3],"categories":[],"categories_nodes":[],"categories_segments":[],"categories_sizes":[],"default_left":[0,0,0,0,0,0,0,0,0,0,0,0,0,0,0,0,0,0,0,0,0],"id":22,"left_children":[1,-1,3,5,7,-1,-1,9,11,-1,13,-1,15,-1,17,-1,19,-1,-1,-1,-1],"loss_changes":[6.319633E-1,0E0,5.2213734E-1,7.242906E-2,5.116812E-1,0E0,0E0,2.0466797E-1,4.5013022E-1,0E0,3.9678803E-1,0E0,4.8008412E-1,0E0,1.0182235E-1,0E0,1.8539855E-1,0E0,0E0,0E0,0E0],"parents":[2147483647,0,0,2,2,3,3,4,4,7,7,8,8,10,10,12,12,14,14,16,16],"right_children":[2,-1,4,6,8,-1,-1,10,12,-1,14,-1,16,-1,18,-1,20,-1,-1,-1,-1],"split_conditions":[6.138152E-1,1.2672655E-1,5.485822E-1,7.9732716E-1,9.9636686E-1,-1.5269328E-2,-1.2482011E-1,1E0,8.7807125E-1,-1.1842424E-1,1E0,1.4106171E-1,1E0,-1.0303113E-1,8.952854E-1,-1.13475285E-1,9.27825E-1,1.0170855E-1,-4.406785E-3,1.0490451E-1,5.169184E-3],"split_indices":[7,0,3,2,8,0,0,3,3,0,12,0,11,0,6,0,16,0,0,0,0],"split_type":[0,0,0,0,0,0,0,0,0,0,0,0,0,0,0,0,0,0,0,0,0],"sum_hessian":[2.1001282E1,2.4166067E0,1.8584675E1,3.4682276E0,1.51164465E1,1.0116111E0,2.4566166E0,5.237118E0,9.879329E0,1.7279453E0,3.5091724E0,2.4418392E0,7.4374895E0,1.2352049E0,2.2739677E0,1.2470722E0,6.1904173E0,1.0600959E0,1.2138717E0,1.8564038E0,4.3340135E0],"tree_param":{"num_deleted":"0","num_feature":"19","num_nodes":"21","size_leaf_vector":"1"}},{"base_weights":[-6.617397E-2,3.439561E-1,-3.9153594E-1,1.4678924E-1,-8.741609E-2,-1.9203651E-3,-1.4324057E-1],"categories":[],"categories_nodes":[],"categories_segments":[],"categories_sizes":[],"default_left":[0,0,0,0,0,0,0],"id":23,"left_children":[1,3,5,-1,-1,-1,-1],"loss_changes":[2.2497926E0,8.3922267E-1,3.0494487E-1,0E0,0E0,0E0,0E0],"parents":[2147483647,0,0,1,1,2,2],"right_children":[2,4,6,-1,-1,-1,-1],"split_conditions":[6.1091924E-1,7.1440053E-1,8.2543826E-1,1.4678924E-1,-8.741609E-2,-1.9203651E-3,-1.4324057E-1],"split_indices":[16,3,15,0,0,0,0],"split_type":[0,0,0,0,0,0,0],"sum_hessian":[1.4850643E1,6.5442452E0,8.306398E0,5.5129657E0,1.0312793E0,1.7112722E0,6.5951257E0],"tree_param":{"num_deleted":"0","num_feature":"19","num_nodes":"7","size_leaf_vector":"1"}},{"base_weights":[1.9121235E-2,-2.570267E-1,1.2624545E-1,-1.1538485E-1,-5.316369E-2,-1.210632E-1,2.0643857E-1,-1.0790297E-1,7.5377025E-2,6.1806872E-2,-1.1123265E-1,1.3428959E-1,9.498744E-2,-5.7449285E-2,1.9434226E-1,1.2889978E-1,5.687338E-2,6.71571E-2,-1.0673654E-2],"categories":[],"categories_nodes":[],"categories_segments":[],"categories_sizes":[],"default_left":[0,0,0,0,0,0,0,0,0,0,0,0,0,0,0,0,0,0,0],"id":24,"left_children":[1,3,5,-1,7,9,11,-1,-1,-1,-1,-1,13,-1,15,-1,17,-1,-1],"loss_changes":[6.3031125E-1,1.3504842E-1,3.2708246E-1,0E0,4.1337097E-1,4.3251234E-1,2.7661502E-1,0E0,0E0,0E0,0E0,0E0,3.044695E-1,0E0,2.1714538E-1,0E0,9.8533124E-2,0E0,0E0],"parents":[2147483647,0,0,1,1,2,2,4,4,5,5,6,6,12,12,14,14,16,16],"right_children":[2,4,6,-1,8,10,12,-1,-1,-1,-1,-1,14,-1,16,-1,18,-1,-1],"split_conditions":[7.8389335E-1,8.396056E-1,8.7670934E-1,-1.1538485E-1,8.823504E-1,1E0,8.721507E-1,-1.0790297E-1,7.5377025E-2,6.1806872E-2,-1.1123265E-1,1.3428959E-1,9.251399E-1,-5.7449285E-2,1E0,1.2889978E-1,8.7040293E-1,6.71571E-2,-1.0673654E-2],"split_indices":[4,16,8,0,6,12,15,0,0,0,0,0,14,0,4,0,0,0,0],"split_type":[0,0,0,0,0,0,0,0,0,0,0,0,0,0,0,0,0,0,0],"sum_hessian":[1.9210266E1,4.97814E0,1.4232126E1,2.516516E0,2.461624E0,3.3601294E0,1.0871997E1,1.136151E0,1.3254728E0,1.5304394E0,1.82969E0,2.482714E0,8.389283E0,1.921452E0,6.4678307E0,1.6012347E0,4.866596E0,1.2277522E0,3.6388438E0],"tree_param":{"num_deleted":"0","num_feature":"19","num_nodes":"19","size_leaf_vector":"1"}},{"base_weights":[2.9367441E-2,-1.09005675E-1,8.591426E-2,-2.131498E-1,1.8185626E-1,4.1478235E-2,-1.0285265E-1,3.791012E-1,9.38585E-2,1.9359224E-2,1.3890895E-1,1.1072773E-1,2.6612923E-2,-2.2827867E-1,1.2383137E-1,-8.027966E-2,-2.1669125E-2,9.169578E-2,6.7449254E-3],"categories":[],"categories_nodes":[],"categories_segments":[],"categories_sizes":[],"default_left":[0,0,0,0,0,0,0,0,0,0,0,0,0,0,0,0,0,0,0],"id":25,"left_children":[1,-1,3,5,7,-1,-1,9,11,-1,-1,-1,13,15,17,-1,-1,-1,-1],"loss_changes":[4.8182684E-1,0E0,5.709022E-1,2.736829E-1,2.1750385E-1,0E0,0E0,8.0194354E-2,2.0139107E-1,0E0,0E0,0E0,2.8223637E-1,1.9191206E-4,1.4178878E-1,0E0,0E0,0E0,0E0],"parents":[2147483647,0,0,2,2,3,3,4,4,7,7,8,8,12,12,13,13,14,14],"right_children":[2,-1,4,6,8,-1,-1,10,12,-1,-1,-1,14,16,18,-1,-1,-1,-1],"split_conditions":[8.721507E-1,-1.09005675E-1,5.3975105E-1,9.3614465E-1,1E0,4.1478235E-2,-1.0285265E-1,8.598917E-1,7.8389335E-1,1.9359224E-2,1.3890895E-1,1.1072773E-1,1E0,9.186804E-1,9.619031E-1,-8.027966E-2,-2.1669125E-2,9.169578E-2,6.7449254E-3],"split_indices":[15,0,5,8,14,0,0,10,4,0,0,0,5,4,2,0,0,0,0],"split_type":[0,0,0,0,0,0,0,0,0,0,0,0,0,0,0,0,0,0,0],"sum_hessian":[1.9291292E1,1.7451907E0,1.75461E1,3.9650028E0,1.3581099E1,1.0510476E0,2.9139552E0,3.1692405E0,1.0411858E1,1.0400257E0,2.1292148E0,1.1630028E0,9.248855E0,2.1814177E0,7.067437E0,1.1714063E0,1.0100116E0,1.8079927E0,5.2594447E0],"tree_param":{"num_deleted":"0","num_feature":"19","num_nodes":"19","size_leaf_vector":"1"}},{"base_weights":[-7.1993485E-2,2.2847266E-1,-1.3993184E-1,1.3250339E-1,-1.4998585E-1,-1.0404381E-1,5.5148628E-2],"categories":[],"categories_nodes":[],"categories_segments":[],"categories_sizes":[],"default_left":[0,0,0,0,0,0,0],"id":26,"left_children":[1,3,-1,-1,5,-1,-1],"loss_changes":[1.7237378E0,7.4535716E-1,0E0,0E0,3.1207007E-1,0E0,0E0],"parents":[2147483647,0,0,1,1,4,4],"right_children":[2,4,-1,-1,6,-1,-1],"split_conditions":[1E0,6.1091924E-1,-1.3993184E-1,1.3250339E-1,1E0,-1.0404381E-1,5.5148628E-2],"split_indices":[3,16,0,0,5,0,0],"split_type":[0,0,0,0,0,0,0],"sum_hessian":[1.2644963E1,7.4163737E0,5.2285895E0,4.6370425E0,2.7793307E0,1.7239194E0,1.0554113E0],"tree_param":{"num_deleted":"0","num_feature":"19","num_nodes":"7","size_leaf_vector":"1"}},{"base_weights":[1.9124364E-2,-2.3730865E-1,1.1333269E-1,-1.06872186E-1,-5.6828585E-2,1.1100849E-1,3.9007097E-2,-9.957182E-2,6.404077E-2,-1.12389855E-1,1.1122268E-1,-5.6185268E-2,1.9502732E-1,-2.8744567E-2,2.7923313E-1,1.4537625E-1,4.1315645E-2],"categories":[],"categories_nodes":[],"categories_segments":[],"categories_sizes":[],"default_left":[0,0,0,0,0,0,0,0,0,0,0,0,0,0,0,0,0],"id":27,"left_children":[1,3,5,-1,7,-1,9,-1,-1,-1,11,-1,13,-1,15,-1,-1],"loss_changes":[4.8096755E-1,9.508979E-2,2.6073736E-1,0E0,3.1800997E-1,0E0,4.091477E-1,0E0,0E0,0E0,3.1782526E-1,0E0,2.537745E-1,0E0,1.4958745E-1,0E0,0E0],"parents":[2147483647,0,0,1,1,2,2,4,4,6,6,10,10,12,12,14,14],"right_children":[2,4,6,-1,8,-1,10,-1,-1,-1,12,-1,14,-1,16,-1,-1],"split_conditions":[7.8389335E-1,8.396056E-1,7.8992575E-1,-1.06872186E-1,8.823504E-1,1.1100849E-1,8.6157435E-1,-9.957182E-2,6.404077E-2,-1.12389855E-1,8.7670934E-1,-5.6185268E-2,9.251399E-1,-2.8744567E-2,8.7040293E-1,1.4537625E-1,4.1315645E-2],"split_indices":[4,16,13,0,6,0,13,0,0,0,8,0,14,0,0,0,0],"split_type":[0,0,0,0,0,0,0,0,0,0,0,0,0,0,0,0,0],"sum_hessian":[1.779586E1,4.3731804E0,1.342268E1,2.049054E0,2.3241265E0,2.1205466E0,1.1302134E1,1.0389141E0,1.2852124E0,1.0574601E0,1.0244673E1,1.9750166E0,8.269656E0,1.8257477E0,6.4439087E0,1.6399066E0,4.8040023E0],"tree_param":{"num_deleted":"0","num_feature":"19","num_nodes":"17","size_leaf_vector":"1"}},{"base_weights":[2.976792E-2,1.0752683E-1,-3.0969795E-2,-3.1244415E-1,4.0107302E-2,-2.5276134E-2,-1.1501474E-1,1.1669885E-1,-2.6166407E-2,8.207098E-2,-8.9895055E-2,1.5946722E-1,-1.8041375E-1,-3.7891224E-2,1.1463601E-1,-1.1535337E-1,-2.1000508E-2],"categories":[],"categories_nodes":[],"categories_segments":[],"categories_sizes":[],"default_left":[0,0,0,0,0,0,0,0,0,0,0,0,0,0,0,0,0],"id":28,"left_children":[1,-1,3,5,7,-1,-1,-1,9,-1,11,13,15,-1,-1,-1,-1],"loss_changes":[3.8981527E-1,0E0,3.51304E-1,2.480194E-2,3.432672E-1,0E0,0E0,0E0,2.7373654E-1,0E0,2.8854445E-1,2.7706075E-1,1.7393315E-1,0E0,0E0,0E0,0E0],"parents":[2147483647,0,0,2,2,3,3,4,4,8,8,10,10,11,11,12,12],"right_children":[2,-1,4,6,8,-1,-1,-1,10,-1,12,14,16,-1,-1,-1,-1],"split_conditions":[6.138152E-1,1.0752683E-1,1E0,8.7807125E-1,9.1329163E-1,-2.5276134E-2,-1.1501474E-1,1.1669885E-1,8.837196E-1,8.207098E-2,8.952854E-1,7.8671294E-1,9.3614465E-1,-3.7891224E-2,1.1463601E-1,-1.1535337E-1,-2.1000508E-2],"split_indices":[7,0,11,3,14,0,0,0,18,0,6,6,8,0,0,0,0],"split_type":[0,0,0,0,0,0,0,0,0,0,0,0,0,0,0,0,0],"sum_hessian":[1.7972038E1,2.038805E0,1.5933234E1,2.527634E0,1.3405601E1,1.1182415E0,1.4093924E0,1.3626384E0,1.2042962E1,1.5342343E0,1.0508727E1,2.5958726E0,7.9128547E0,1.3263081E0,1.2695645E0,1.9063824E0,6.0064726E0],"tree_param":{"num_deleted":"0","num_feature":"19","num_nodes":"17","size_leaf_vector":"1"}},{"base_weights":[-7.754855E-2,2.0243955E-1,-1.3369101E-1,1.2421698E-1,-1.4400691E-1,4.810434E-2,-9.8887786E-2],"categories":[],"categories_nodes":[],"categories_segments":[],"categories_sizes":[],"default_left":[0,0,0,0,0,0,0],"id":29,"left_children":[1,3,-1,-1,5,-1,-1],"loss_changes":[1.3184781E0,6.063037E-1,0E0,0E0,2.5451055E-1,0E0,0E0],"parents":[2147483647,0,0,1,1,4,4],"right_children":[2,4,-1,-1,6,-1,-1],"split_conditions":[1E0,6.1091924E-1,-1.3369101E-1,1.2421698E-1,8.9098287E-1,4.810434E-2,-9.8887786E-2],"split_indices":[3,16,0,0,8,0,0],"split_type":[0,0,0,0,0,0,0],"sum_hessian":[1.0917912E1,6.456651E0,4.46126E0,3.887145E0,2.5695062E0,1.0249946E0,1.5445114E0],"tree_param":{"num_deleted":"0","num_feature":"19","num_nodes":"7","size_leaf_vector":"1"}},{"base_weights":[1.2840825E-2,-2.5390738E-1,8.339461E-2,6.364211E-3,-1.0835518E-1,-8.6871654E-2,1.4409025E-1,1.1746294E-1,1.0761513E-2,-1.0041791E-1,1.1115669E-1,1.03292294E-1,2.576752E-2,9.180238E-2,-2.6028173E-2],"categories":[],"categories_nodes":[],"categories_segments":[],"categories_sizes":[],"default_left":[0,0,0,0,0,0,0,0,0,0,0,0,0,0,0],"id":30,"left_children":[1,3,5,-1,-1,-1,7,-1,9,-1,11,-1,13,-1,-1],"loss_changes":[3.5062498E-1,1.2302768E-1,3.7215042E-1,0E0,0E0,0E0,4.3198898E-1,0E0,3.7088493E-1,0E0,1.5447336E-1,0E0,2.500141E-1,0E0,0E0],"parents":[2147483647,0,0,1,1,2,2,6,6,8,8,10,10,12,12],"right_children":[2,4,6,-1,-1,-1,8,-1,10,-1,12,-1,14,-1,-1],"split_conditions":[6.15103E-1,1E0,7.165124E-1,6.364211E-3,-1.0835518E-1,-8.6871654E-2,1E0,1.1746294E-1,8.9098287E-1,-1.0041791E-1,9.9636686E-1,1.03292294E-1,7.8632987E-1,9.180238E-2,-2.6028173E-2],"split_indices":[16,0,0,0,0,0,12,0,8,0,8,0,14,0,0],"split_type":[0,0,0,0,0,0,0,0,0,0,0,0,0,0,0],"sum_hessian":[1.6505249E1,2.9088304E0,1.3596419E1,1.0410929E0,1.8677375E0,1.3751869E0,1.2221232E1,3.6010857E0,8.620147E0,1.415371E0,7.204776E0,1.1185133E0,6.0862627E0,1.2511076E0,4.835155E0],"tree_param":{"num_deleted":"0","num_feature":"19","num_nodes":"15","size_leaf_vector":"1"}},{"base_weights":[3.3606697E-2,-9.75885E-2,8.433742E-2,-2.038172E-1,1.545772E-1,1.7714186E-2,-9.996087E-2,-3.6683876E-2,1.9114693E-1,1.2344644E-1,1.1184052E-1,-1.5708067E-1,2.1355313E-1,-6.884854E-2,-8.300473E-3,-4.126537E-2,8.763935E-2],"categories":[],"categories_nodes":[],"categories_segments":[],"categories_sizes":[],"default_left":[0,0,0,0,0,0,0,0,0,0,0,0,0,0,0,0,0],"id":31,"left_children":[1,-1,3,5,7,-1,-1,-1,9,-1,11,13,15,-1,-1,-1,-1],"loss_changes":[3.5068142E-1,0E0,3.624094E-1,1.433204E-1,1.6221786E-1,0E0,0E0,0E0,1.7247412E-1,0E0,3.2259792E-1,2.6227318E-2,2.6341674E-1,0E0,0E0,0E0,0E0],"parents":[2147483647,0,0,2,2,3,3,4,4,8,8,10,10,11,11,12,12],"right_children":[2,-1,4,6,8,-1,-1,-1,10,-1,12,14,16,-1,-1,-1,-1],"split_conditions":[8.721507E-1,-9.75885E-2,5.485822E-1,9.7450924E-1,7.7143896E-1,1.7714186E-2,-9.996087E-2,-3.6683876E-2,7.098698E-1,1.2344644E-1,9.9636686E-1,9.1977763E-1,1E0,-6.884854E-2,-8.300473E-3,-4.126537E-2,8.763935E-2],"split_indices":[15,0,3,6,13,0,0,0,7,0,8,7,11,0,0,0,0],"split_type":[0,0,0,0,0,0,0,0,0,0,0,0,0,0,0,0,0],"sum_hessian":[1.6753654E1,1.4045782E0,1.5349077E1,2.6354716E0,1.2713606E1,1.0486438E0,1.5868278E0,1.2099274E0,1.1503678E1,1.9360532E0,9.567625E0,2.476245E0,7.09138E0,1.0918969E0,1.384348E0,1.1595855E0,5.9317946E0],"tree_param":{"num_deleted":"0","num_feature":"19","num_nodes":"17","size_leaf_vector":"1"}},{"base_weights":[-7.814637E-2,1.8436937E-1,-1.2785035E-1,1.16977006E-1,-1.347083E-1,-9.2663884E-2,3.9998922E-2],"categories":[],"categories_nodes":[],"categories_segments":[],"categories_sizes":[],"default_left":[0,0,0,0,0,0,0],"id":32,"left_children":[1,3,-1,-1,5,-1,-1],"loss_changes":[1.0389E0,4.9129087E-1,0E0,0E0,1.9824442E-1,0E0,0E0],"parents":[2147483647,0,0,1,1,4,4],"right_children":[2,4,-1,-1,6,-1,-1],"split_conditions":[1E0,6.1091924E-1,-1.2785035E-1,1.16977006E-1,9.6837693E-1,-9.2663884E-2,3.9998922E-2],"split_indices":[3,16,0,0,5,0,0],"split_type":[0,0,0,0,0,0,0],"sum_hessian":[9.511338E0,5.689747E0,3.8215916E0,3.3254297E0,2.3643174E0,1.3407347E0,1.0235826E0],"tree_param":{"num_deleted":"0","num_feature":"19","num_nodes":"7","size_leaf_vector":"1"}},{"base_weights":[1.8064803E-2,-1.772987E-1,1.0577775E-1,2.544262E-2,-2.908871E-1,1.0586978E-1,3.550399E-2,-6.7643956E-3,-1.1262432E-1,-6.720058E-2,1.2463177E-1,8.725463E-2,4.8782773E-2,-5.0226234E-2,4.0602207E-2],"categories":[],"categories_nodes":[],"categories_segments":[],"categories_sizes":[],"default_left":[0,0,0,0,0,0,0,0,0,0,0,0,0,0,0],"id":33,"left_children":[1,3,5,-1,7,-1,9,-1,-1,-1,11,-1,13,-1,-1],"loss_changes":[2.995334E-1,1.8695277E-1,1.9472931E-1,0E0,8.291018E-2,0E0,2.685554E-1,0E0,0E0,0E0,9.154722E-2,0E0,1.529167E-1,0E0,0E0],"parents":[2147483647,0,0,1,1,2,2,4,4,6,6,10,10,12,12],"right_children":[2,4,6,-1,8,-1,10,-1,-1,-1,12,-1,14,-1,-1],"split_conditions":[8.7807125E-1,9.3712413E-1,7.8992575E-1,2.544262E-2,7.931911E-1,1.0586978E-1,8.7670934E-1,-6.7643956E-3,-1.1262432E-1,-6.720058E-2,7.4497354E-1,8.725463E-2,9.27825E-1,-5.0226234E-2,4.0602207E-2],"split_indices":[3,9,13,0,13,0,8,0,0,0,0,0,16,0,0],"split_type":[0,0,0,0,0,0,0,0,0,0,0,0,0,0,0],"sum_hessian":[1.5385423E1,4.450794E0,1.09346285E1,1.4222629E0,3.0285316E0,1.5305583E0,9.40407E0,1.028913E0,1.9996184E0,2.0172741E0,7.386796E0,1.4263933E0,5.9604025E0,1.4369636E0,4.523439E0],"tree_param":{"num_deleted":"0","num_feature":"19","num_nodes":"15","size_leaf_vector":"1"}},{"base_weights":[2.785759E-2,-9.236745E-2,7.565786E-2,1.0064646E-1,6.3927537E-3,-7.848345E-2,7.919098E-2,-1.7650782E-1,1.7712463E-1,-2.0295259E-2,-6.4596E-2,1.2160378E-1,5.748062E-2,-5.684691E-2,4.322124E-2],"categories":[],"categories_nodes":[],"categories_segments":[],"categories_sizes":[],"default_left":[0,0,0,0,0,0,0,0,0,0,0,0,0,0,0],"id":34,"left_children":[1,-1,3,-1,5,-1,7,9,11,-1,-1,-1,13,-1,-1],"loss_changes":[2.903454E-1,0E0,2.744506E-1,0E0,2.773461E-1,0E0,3.0951214E-1,5.505532E-4,2.0970857E-1,0E0,0E0,0E0,1.7194304E-1,0E0,0E0],"parents":[2147483647,0,0,2,2,4,4,6,6,7,7,8,8,12,12],"right_children":[2,-1,4,-1,6,-1,8,10,12,-1,-1,-1,14,-1,-1],"split_conditions":[8.721507E-1,-9.236745E-2,7.098698E-1,1.0064646E-1,5.485822E-1,-7.848345E-2,9.9636686E-1,8.351951E-1,8.7807125E-1,-2.0295259E-2,-6.4596E-2,1.2160378E-1,7.165341E-1,-5.684691E-2,4.322124E-2],"split_indices":[15,0,7,0,3,0,8,8,3,0,0,0,0,0,0],"split_type":[0,0,0,0,0,0,0,0,0,0,0,0,0,0,0],"sum_hessian":[1.5639834E1,1.2710152E0,1.4368819E1,2.2152686E0,1.2153551E1,2.0420732E0,1.0111478E1,2.5780435E0,7.533434E0,1.3985487E0,1.1794949E0,1.7697322E0,5.763702E0,1.1877319E0,4.57597E0],"tree_param":{"num_deleted":"0","num_feature":"19","num_nodes":"15","size_leaf_vector":"1"}},{"base_weights":[-8.175254E-2,1.6397457E-1,-1.22270234E-1,1.0859485E-1,-1.2730245E-1,-8.62302E-2,3.2526687E-2],"categories":[],"categories_nodes":[],"categories_segments":[],"categories_sizes":[],"default_left":[0,0,0,0,0,0,0],"id":35,"left_children":[1,3,-1,-1,5,-1,-1],"loss_changes":[8.1066465E-1,3.9267656E-1,0E0,0E0,1.5088888E-1,0E0,0E0],"parents":[2147483647,0,0,1,1,4,4],"right_children":[2,4,-1,-1,6,-1,-1],"split_conditions":[1E0,6.1091924E-1,-1.22270234E-1,1.0859485E-1,9.622198E-1,-8.62302E-2,3.2526687E-2],"split_indices":[3,16,0,0,4,0,0],"split_type":[0,0,0,0,0,0,0],"sum_hessian":[8.290775E0,5.0094275E0,3.2813473E0,2.8376603E0,2.1717675E0,1.1626189E0,1.0091485E0],"tree_param":{"num_deleted":"0","num_feature":"19","num_nodes":"7","size_leaf_vector":"1"}},{"base_weights":[1.9220915E-2,-8.886694E-2,6.66622E-2,2.7339554E-1,-2.401435E-6,9.999622E-2,2.5285034E-2,-9.241094E-2,5.840685E-2,8.268793E-2,-4.0966044E-3,-7.156025E-2,6.126153E-2,-6.0140662E-2,4.0048048E-2],"categories":[],"categories_nodes":[],"categories_segments":[],"categories_sizes":[],"default_left":[0,0,0,0,0,0,0,0,0,0,0,0,0,0,0],"id":36,"left_children":[1,-1,3,5,7,-1,-1,-1,9,-1,11,-1,13,-1,-1],"loss_changes":[2.507983E-1,0E0,1.9621533E-1,1.1248469E-2,2.2967961E-1,0E0,0E0,0E0,1.4682205E-1,0E0,1.5739393E-1,0E0,1.7956519E-1,0E0,0E0],"parents":[2147483647,0,0,2,2,3,3,4,4,8,8,10,10,12,12],"right_children":[2,-1,4,6,8,-1,-1,-1,10,-1,12,-1,14,-1,-1],"split_conditions":[3.8091627E-1,-8.886694E-2,1E0,7.8632987E-1,1E0,9.999622E-2,2.5285034E-2,-9.241094E-2,7.7143896E-1,8.268793E-2,8.2818776E-1,-7.156025E-2,8.948262E-1,-6.0140662E-2,4.0048048E-2],"split_indices":[4,0,11,14,14,0,0,0,13,0,16,0,12,0,0],"split_type":[0,0,0,0,0,0,0,0,0,0,0,0,0,0,0],"sum_hessian":[1.4439381E1,1.2021452E0,1.3237235E1,2.471577E0,1.0765658E1,1.2977835E0,1.1737934E0,1.0347762E0,9.730882E0,1.4124357E0,8.318446E0,1.2358488E0,7.0825977E0,1.1478926E0,5.934705E0],"tree_param":{"num_deleted":"0","num_feature":"19","num_nodes":"15","size_leaf_vector":"1"}},{"base_weights":[2.5044378E-2,-8.7591E-2,7.0249215E-2,9.271466E-2,6.9191935E-3,6.847728E-2,-6.947051E-2,-2.6028007E-1,1.4186982E-2,-9.363376E-2,-2.4310933E-2,-1.1018643E-1,1.3711184E-1,2.7791109E-2,-9.504588E-2,4.1398968E-4,5.3054467E-2],"categories":[],"categories_nodes":[],"categories_segments":[],"categories_sizes":[],"default_left":[0,0,0,0,0,0,0,0,0,0,0,0,0,0,0,0,0],"id":37,"left_children":[1,-1,3,-1,5,-1,7,9,11,-1,-1,13,15,-1,-1,-1,-1],"loss_changes":[2.4514519E-1,0E0,2.1752572E-1,0E0,2.2726224E-1,0E0,1.643073E-1,3.6808848E-3,1.3655044E-1,0E0,0E0,2.1806389E-1,2.3705773E-2,0E0,0E0,0E0,0E0],"parents":[2147483647,0,0,2,2,4,4,6,6,7,7,8,8,11,11,12,12],"right_children":[2,-1,4,-1,6,-1,8,10,12,-1,-1,14,16,-1,-1,-1,-1],"split_conditions":[8.721507E-1,-8.7591E-2,7.098698E-1,9.271466E-2,9.9606556E-1,6.847728E-2,1E0,1E0,1E0,-9.363376E-2,-2.4310933E-2,7.1575683E-1,9.2126447E-1,2.7791109E-2,-9.504588E-2,4.1398968E-4,5.3054467E-2],"split_indices":[15,0,7,0,18,0,12,6,5,0,0,5,8,0,0,0,0],"split_type":[0,0,0,0,0,0,0,0,0,0,0,0,0,0,0,0,0],"sum_hessian":[1.4675185E1,1.150199E0,1.3524986E1,2.0217109E0,1.1503276E1,2.4413686E0,9.061907E0,2.1185563E0,6.943351E0,1.0683442E0,1.0502119E0,3.5028503E0,3.4405007E0,2.0461292E0,1.4567212E0,1.0134563E0,2.4270444E0],"tree_param":{"num_deleted":"0","num_feature":"19","num_nodes":"17","size_leaf_vector":"1"}},{"base_weights":[-8.2930274E-2,1.4700285E-1,-1.16881765E-1,1.01900555E-1,-1.2188737E-1,-8.009196E-2,2.4952453E-2],"categories":[],"categories_nodes":[],"categories_segments":[],"categories_sizes":[],"default_left":[0,0,0,0,0,0,0],"id":38,"left_children":[1,3,-1,-1,5,-1,-1],"loss_changes":[6.4340824E-1,3.2511857E-1,0E0,0E0,1.121141E-1,0E0,0E0],"parents":[2147483647,0,0,1,1,4,4],"right_children":[2,4,-1,-1,6,-1,-1],"split_conditions":[1E0,6.1091924E-1,-1.16881765E-1,1.01900555E-1,9.274596E-1,-8.009196E-2,2.4952453E-2],"split_indices":[3,16,0,0,5,0,0],"split_type":[0,0,0,0,0,0,0],"sum_hessian":[7.312217E0,4.476542E0,2.8356752E0,2.4545674E0,2.0219746E0,1.0073441E0,1.0146304E0],"tree_param":{"num_deleted":"0","num_feature":"19","num_nodes":"7","size_leaf_vector":"1"}},{"base_weights":[1.6548915E-2,-1.8491061E-1,8.249736E-2,-7.817592E-3,-9.162088E-2,8.255906E-2,1.7868413E-2,8.159737E-2,-5.542954E-2,4.8886403E-2,-1.2379901E-1,-7.455916E-2,-5.5655103E-2,-5.1747374E-2,5.627956E-3],"categories":[],"categories_nodes":[],"categories_segments":[],"categories_sizes":[],"default_left":[0,0,0,0,0,0,0,0,0,0,0,0,0,0,0],"id":39,"left_children":[1,3,5,-1,-1,-1,7,-1,9,-1,11,-1,13,-1,-1],"loss_changes":[2.0986024E-1,6.7089096E-2,1.4112529E-1,0E0,0E0,0E0,1.9856513E-1,0E0,1.467318E-1,0E0,4.586654E-2,0E0,5.3929973E-2,0E0,0E0],"parents":[2147483647,0,0,1,1,2,2,6,6,8,8,10,10,12,12],"right_children":[2,4,6,-1,-1,-1,8,-1,10,-1,12,-1,14,-1,-1],"split_conditions":[8.335396E-1,4.4523865E-1,1E0,-7.817592E-3,-9.162088E-2,8.255906E-2,7.8992575E-1,8.159737E-2,1E0,4.8886403E-2,9.27825E-1,-7.455916E-2,8.5006297E-1,-5.1747374E-2,5.627956E-3],"split_indices":[5,3,4,0,0,0,13,0,11,0,16,0,0,0,0],"split_type":[0,0,0,0,0,0,0,0,0,0,0,0,0,0,0],"sum_hessian":[1.3647481E1,2.9208853E0,1.0726596E1,1.784519E0,1.1363664E0,1.8757379E0,8.850858E0,1.3745509E0,7.476307E0,1.4526961E0,6.023611E0,1.1929245E0,4.8306866E0,1.3667846E0,3.4639018E0],"tree_param":{"num_deleted":"0","num_feature":"19","num_nodes":"15","size_leaf_vector":"1"}},{"base_weights":[2.3631124E-2,-8.3320655E-2,6.654491E-2,9.766895E-2,1.6015504E-2,-7.5095765E-2,8.536536E-2,9.119235E-2,2.3920978E-3,-5.5239987E-2,7.835796E-2,-1.7406726E-2,5.9350524E-2],"categories":[],"categories_nodes":[],"categories_segments":[],"categories_sizes":[],"default_left":[0,0,0,0,0,0,0,0,0,0,0,0,0],"id":40,"left_children":[1,-1,3,-1,5,-1,7,-1,9,-1,11,-1,-1],"loss_changes":[2.1116453E-1,0E0,1.7603424E-1,0E0,2.5482494E-1,0E0,1.9469988E-1,0E0,1.3937184E-1,0E0,1.2500706E-1,0E0,0E0],"parents":[2147483647,0,0,2,2,4,4,6,6,8,8,10,10],"right_children":[2,-1,4,-1,6,-1,8,-1,10,-1,12,-1,-1],"split_conditions":[8.721507E-1,-8.3320655E-2,6.138152E-1,9.766895E-2,1E0,-7.5095765E-2,9.9606556E-1,9.119235E-2,1E0,-5.5239987E-2,1E0,-1.7406726E-2,5.9350524E-2],"split_indices":[15,0,7,0,11,0,18,0,12,0,5,0,0],"split_type":[0,0,0,0,0,0,0,0,0,0,0,0,0],"sum_hessian":[1.3898779E1,1.0503865E0,1.28483925E1,1.2088214E0,1.1639571E1,1.8655406E0,9.774031E0,1.956288E0,7.8177423E0,1.8504012E0,5.9673414E0,3.026745E0,2.940596E0],"tree_param":{"num_deleted":"0","num_feature":"19","num_nodes":"13","size_leaf_vector":"1"}},{"base_weights":[-7.889802E-2,1.3531522E-1,-1.11437455E-1,9.56475E-2,-3.342612E-2],"categories":[],"categories_nodes":[],"categories_segments":[],"categories_sizes":[],"default_left":[0,0,0,0,0],"id":41,"left_children":[1,3,-1,-1,-1],"loss_changes":[5.224669E-1,2.6566365E-1,0E0,0E0,0E0],"parents":[2147483647,0,0,1,1],"right_children":[2,4,-1,-1,-1],"split_conditions":[1E0,6.1091924E-1,-1.11437455E-1,9.56475E-2,-3.342612E-2],"split_indices":[3,16,0,0,0],"split_type":[0,0,0,0,0],"sum_hessian":[6.5347204E0,4.082779E0,2.4519415E0,2.1738238E0,1.9089552E0],"tree_param":{"num_deleted":"0","num_feature":"19","num_nodes":"5","size_leaf_vector":"1"}},{"base_weights":[1.4009716E-2,-1.7209414E-1,7.420204E-2,-5.5563995E-3,-8.7179825E-2,-3.3288054E-2,1.2535892E-1,9.220105E-2,4.741497E-2,-3.0520068E-2,1.0331417E-1,-3.5453983E-2,1.9456737E-1,3.7756553E-3,7.456084E-2],"categories":[],"categories_nodes":[],"categories_segments":[],"categories_sizes":[],"default_left":[0,0,0,0,0,0,0,0,0,0,0,0,0,0,0],"id":42,"left_children":[1,3,5,-1,-1,-1,7,-1,9,-1,11,-1,13,-1,-1],"loss_changes":[1.6981633E-1,6.2455066E-2,1.20871216E-1,0E0,0E0,0E0,1.175822E-1,0E0,7.4753985E-2,0E0,1.4630874E-1,0E0,4.302022E-2,0E0,0E0],"parents":[2147483647,0,0,1,1,2,2,6,6,8,8,10,10,12,12],"right_children":[2,4,6,-1,-1,-1,8,-1,10,-1,12,-1,14,-1,-1],"split_conditions":[8.335396E-1,4.4523865E-1,1E0,-5.5563995E-3,-8.7179825E-2,-3.3288054E-2,1E0,9.220105E-2,9.619031E-1,-3.0520068E-2,8.7670934E-1,-3.5453983E-2,9.27825E-1,3.7756553E-3,7.456084E-2],"split_indices":[5,3,14,0,0,0,4,0,2,0,8,0,16,0,0],"split_type":[0,0,0,0,0,0,0,0,0,0,0,0,0,0,0],"sum_hessian":[1.3019485E1,2.7274938E0,1.0291992E1,1.6916063E0,1.0358874E0,1.9748845E0,8.317107E0,1.6115433E0,6.705564E0,1.6045109E0,5.101053E0,1.4022845E0,3.6987686E0,1.1280847E0,2.570684E0],"tree_param":{"num_deleted":"0","num_feature":"19","num_nodes":"15","size_leaf_vector":"1"}},{"base_weights":[2.2294303E-2,-5.6681965E-2,6.9142945E-2,8.145086E-2,1.0930039E-2,6.136743E-2,-4.9604036E-2,-1.9855289E-1,2.8034693E-2,-8.050006E-2,-1.2712396E-2,-5.820555E-2,1.23674765E-1,-2.8273717E-2,7.1644224E-2],"categories":[],"categories_nodes":[],"categories_segments":[],"categories_sizes":[],"default_left":[0,0,0,0,0,0,0,0,0,0,0,0,0,0,0],"id":43,"left_children":[1,-1,3,-1,5,-1,7,9,11,-1,-1,-1,13,-1,-1],"loss_changes":[1.5383299E-1,0E0,1.4280623E-1,0E0,1.3500136E-1,0E0,1.0871813E-1,2.3286626E-2,1.6713049E-1,0E0,0E0,0E0,1.5603147E-1,0E0,0E0],"parents":[2147483647,0,0,2,2,4,4,6,6,7,7,8,8,12,12],"right_children":[2,-1,4,-1,6,-1,8,10,12,-1,-1,-1,14,-1,-1],"split_conditions":[9.673229E-1,-5.6681965E-2,7.098698E-1,8.145086E-2,9.873484E-1,6.136743E-2,8.7040293E-1,7.4645394E-1,9.4850254E-1,-8.050006E-2,-1.2712396E-2,-5.820555E-2,9.9636686E-1,-2.8273717E-2,7.1644224E-2],"split_indices":[15,0,7,0,14,0,0,1,12,0,0,0,8,0,0],"split_type":[0,0,0,0,0,0,0,0,0,0,0,0,0,0,0],"sum_hessian":[1.3224803E1,1.8500758E0,1.1374727E1,1.7226125E0,9.652115E0,1.732193E0,7.919922E0,2.1800776E0,5.7398443E0,1.0104734E0,1.1696043E0,1.4182886E0,4.3215556E0,1.556701E0,2.7648547E0],"tree_param":{"num_deleted":"0","num_feature":"19","num_nodes":"15","size_leaf_vector":"1"}},{"base_weights":[-7.39094E-2,2.1332794E-1,-2.6299298E-1,8.77323E-2,5.448903E-3,2.297922E-2,-1.1354083E-1],"categories":[],"categories_nodes":[],"categories_segments":[],"categories_sizes":[],"default_left":[0,0,0,0,0,0,0],"id":44,"left_children":[1,3,5,-1,-1,-1,-1],"loss_changes":[4.3347615E-1,4.5800626E-2,2.1086326E-1,0E0,0E0,0E0,0E0],"parents":[2147483647,0,0,1,1,2,2],"right_children":[2,4,6,-1,-1,-1,-1],"split_conditions":[6.1091924E-1,4.4040862E-1,8.4399307E-1,8.77323E-2,5.448903E-3,2.297922E-2,-1.1354083E-1],"split_indices":[16,4,15,0,0,0,0],"split_type":[0,0,0,0,0,0,0],"sum_hessian":[5.948251E0,2.3103585E0,3.637892E0,1.2892939E0,1.0210645E0,1.0085768E0,2.6293154E0],"tree_param":{"num_deleted":"0","num_feature":"19","num_nodes":"7","size_leaf_vector":"1"}},{"base_weights":[1.2909275E-2,-1.4474659E-1,7.7597335E-2,2.4003087E-2,-2.4666837E-1,9.05838E-2,1.6887673E-3,-1.9297346E-2,-9.057152E-2,5.668684E-2,-7.176762E-2,-9.562958E-2,2.4365233E-2,-5.108725E-2,9.949747E-2,-3.354048E-2,5.6248255E-2],"categories":[],"categories_nodes":[],"categories_segments":[],"categories_sizes":[],"default_left":[0,0,0,0,0,0,0,0,0,0,0,0,0,0,0,0,0],"id":45,"left_children":[1,3,5,-1,7,-1,9,-1,-1,-1,11,-1,13,-1,15,-1,-1],"loss_changes":[1.4872798E-1,1.1758413E-1,1.733769E-1,0E0,1.2646437E-2,0E0,1.3234226E-1,0E0,0E0,0E0,1.7224143E-1,0E0,1.03452526E-1,0E0,1.1205378E-1,0E0,0E0],"parents":[2147483647,0,0,1,1,2,2,4,4,6,6,10,10,12,12,14,14],"right_children":[2,4,6,-1,8,-1,10,-1,-1,-1,12,-1,14,-1,16,-1,-1],"split_conditions":[8.7807125E-1,9.3712413E-1,1E0,2.4003087E-2,9.8850006E-1,9.05838E-2,9.0420943E-1,-1.9297346E-2,-9.057152E-2,5.668684E-2,8.5006297E-1,-9.562958E-2,8.351951E-1,-5.108725E-2,9.88042E-1,-3.354048E-2,5.6248255E-2],"split_indices":[3,9,11,0,13,0,2,0,0,0,0,0,8,0,16,0,0],"split_type":[0,0,0,0,0,0,0,0,0,0,0,0,0,0,0,0,0],"sum_hessian":[1.2482049E1,3.2714229E0,9.210627E0,1.0877377E0,2.183685E0,1.5757424E0,7.634884E0,1.0109445E0,1.1727407E0,1.708058E0,5.926826E0,1.0116569E0,4.9151692E0,1.0160894E0,3.8990798E0,1.066842E0,2.8322377E0],"tree_param":{"num_deleted":"0","num_feature":"19","num_nodes":"17","size_leaf_vector":"1"}},{"base_weights":[1.8658208E-2,6.206932E-2,-2.8433524E-2,-2.6851067E-1,6.481691E-2,-2.2438604E-2,-1.00663625E-1,7.8487106E-2,-1.3569462E-2,5.850869E-2,-8.397787E-2,-5.9970558E-2,1.4026544E-2,3.1118259E-2,-1.4932909E-2],"categories":[],"categories_nodes":[],"categories_segments":[],"categories_sizes":[],"default_left":[0,0,0,0,0,0,0,0,0,0,0,0,0,0,0],"id":46,"left_children":[1,-1,3,5,7,-1,-1,-1,9,-1,11,-1,13,-1,-1],"loss_changes":[1.2689927E-1,0E0,2.8155425E-1,2.0291895E-2,1.4707929E-1,0E0,0E0,0E0,1.2806419E-1,0E0,7.5337425E-2,0E0,3.0310975E-2,0E0,0E0],"parents":[2147483647,0,0,2,2,3,3,4,4,8,8,10,10,12,12],"right_children":[2,-1,4,6,8,-1,-1,-1,10,-1,12,-1,14,-1,-1],"split_conditions":[7.165124E-1,6.206932E-2,1E0,9.27825E-1,8.9598787E-1,-2.2438604E-2,-1.00663625E-1,7.8487106E-2,9.7889477E-1,5.850869E-2,1E0,-5.9970558E-2,9.1329163E-1,3.1118259E-2,-1.4932909E-2],"split_indices":[0,0,12,16,6,0,0,0,18,0,5,0,14,0,0],"split_type":[0,0,0,0,0,0,0,0,0,0,0,0,0,0,0],"sum_hessian":[1.2651768E1,1.8526552E0,1.0799112E1,2.495328E0,8.303784E0,1.1854404E0,1.3098875E0,1.6994107E0,6.604374E0,1.2199805E0,5.384393E0,1.9903711E0,3.3940222E0,1.1506149E0,2.2434072E0],"tree_param":{"num_deleted":"0","num_feature":"19","num_nodes":"15","size_leaf_vector":"1"}},{"base_weights":[-6.612064E-2,1.3167647E-1,-1.0330618E-1,8.771791E-2,-2.5822457E-2],"categories":[],"categories_nodes":[],"categories_segments":[],"categories_sizes":[],"default_left":[0,0,0,0,0],"id":47,"left_children":[1,3,-1,-1,-1],"loss_changes":[4.0221113E-1,1.8312341E-1,0E0,0E0,0E0],"parents":[2147483647,0,0,1,1],"right_children":[2,4,-1,-1,-1],"split_conditions":[1E0,6.1091924E-1,-1.0330618E-1,8.771791E-2,-2.5822457E-2],"split_indices":[3,16,0,0,0],"split_type":[0,0,0,0,0],"sum_hessian":[5.484528E0,3.5135047E0,1.9710233E0,1.8242726E0,1.6892321E0],"tree_param":{"num_deleted":"0","num_feature":"19","num_nodes":"5","size_leaf_vector":"1"}},{"base_weights":[7.2539486E-3,-4.662249E-2,5.98254E-2,7.2860196E-2,5.2760984E-3,6.261062E-2,-5.790584E-2,3.9354082E-2,-1.0957671E-1,2.367324E-2,-1.6648543E-1,1.9301616E-2,-8.053184E-2],"categories":[],"categories_nodes":[],"categories_segments":[],"categories_sizes":[],"default_left":[0,0,0,0,0,0,0,0,0,0,0,0,0],"id":48,"left_children":[1,-1,3,-1,5,-1,7,-1,9,-1,11,-1,-1],"loss_changes":[1.18744254E-1,0E0,1.0250714E-1,0E0,1.2815025E-1,0E0,8.9342095E-2,0E0,8.362355E-2,0E0,1.4361826E-1,0E0,0E0],"parents":[2147483647,0,0,2,2,4,4,6,6,8,8,10,10],"right_children":[2,-1,4,-1,6,-1,8,-1,10,-1,12,-1,-1],"split_conditions":[7.8389335E-1,-4.662249E-2,7.9600126E-1,7.2860196E-2,1E0,6.261062E-2,1E0,3.9354082E-2,9.654981E-1,2.367324E-2,9.2126447E-1,1.9301616E-2,-8.053184E-2],"split_indices":[4,0,9,0,11,0,4,0,15,0,8,0,0],"split_type":[0,0,0,0,0,0,0,0,0,0,0,0,0],"sum_hessian":[1.1798725E1,2.404081E0,9.394644E0,1.3643317E0,8.030312E0,1.3572389E0,6.673073E0,1.1019163E0,5.5711565E0,1.202322E0,4.3688345E0,1.4515244E0,2.9173102E0],"tree_param":{"num_deleted":"0","num_feature":"19","num_nodes":"13","size_leaf_vector":"1"}},{"base_weights":[2.2034412E-2,-5.4705784E-2,6.9536775E-2,7.1949944E-2,1.9305304E-2,-1.0906904E-1,1.0124174E-1,3.223508E-2,-7.938827E-2,-3.8373668E-2,1.6822651E-1,-4.6583127E-2,6.385618E-2,-1.7612986E-2,7.566528E-2],"categories":[],"categories_nodes":[],"categories_segments":[],"categories_sizes":[],"default_left":[0,0,0,0,0,0,0,0,0,0,0,0,0,0,0],"id":49,"left_children":[1,-1,3,-1,5,7,9,11,-1,-1,13,-1,-1,-1,-1],"loss_changes":[1.3880046E-1,0E0,9.1728315E-2,0E0,1.13978386E-1,1.02918E-1,1.2117098E-1,1.3944942E-1,0E0,0E0,1.1879428E-1,0E0,0E0,0E0,0E0],"parents":[2147483647,0,0,2,2,4,4,5,5,6,6,7,7,10,10],"right_children":[2,-1,4,-1,6,8,10,12,-1,-1,14,-1,-1,-1,-1],"split_conditions":[9.673229E-1,-5.4705784E-2,7.098698E-1,7.1949944E-2,1E0,7.1575683E-1,1E0,5.485822E-1,-7.938827E-2,-3.8373668E-2,9.2126447E-1,-4.6583127E-2,6.385618E-2,-1.7612986E-2,7.566528E-2],"split_indices":[15,0,7,0,5,5,11,3,0,0,8,0,0,0,0],"split_type":[0,0,0,0,0,0,0,0,0,0,0,0,0,0,0],"sum_hessian":[1.1990213E1,1.72581E0,1.0264403E1,1.4782462E0,8.786158E0,3.2940478E0,5.49211E0,2.1415312E0,1.1525167E0,1.0365419E0,4.455568E0,1.1195543E0,1.021977E0,1.2848945E0,3.1706731E0],"tree_param":{"num_deleted":"0","num_feature":"19","num_nodes":"15","size_leaf_vector":"1"}},{"base_weights":[-6.2997416E-2,1.1946485E-1,-9.814948E-2,8.230679E-2,-2.4090426E-2],"categories":[],"categories_nodes":[],"categories_segments":[],"categories_sizes":[],"default_left":[0,0,0,0,0],"id":50,"left_children":[1,3,-1,-1,-1],"loss_changes":[3.291212E-1,1.5482043E-1,0E0,0E0,0E0],"parents":[2147483647,0,0,1,1],"right_children":[2,4,-1,-1,-1],"split_conditions":[1E0,6.1091924E-1,-9.814948E-2,8.230679E-2,-2.4090426E-2],"split_indices":[3,16,0,0,0],"split_type":[0,0,0,0,0],"sum_hessian":[5.017279E0,3.2915514E0,1.725728E0,1.6437025E0,1.6478487E0],"tree_param":{"num_deleted":"0","num_feature":"19","num_nodes":"5","size_leaf_vector":"1"}},{"base_weights":[1.2344581E-2,-1.4641461E-1,6.604151E-2,3.2875974E-2,-9.429667E-2,8.086088E-2,1.30492905E-2,-6.0877103E-2,9.763547E-2,-3.4193065E-2,1.6042079E-1,1.10825235E-2,1.9090708E-1,1.231332E-2,6.832643E-2],"categories":[],"categories_nodes":[],"categories_segments":[],"categories_sizes":[],"default_left":[0,0,0,0,0,0,0,0,0,0,0,0,0,0,0],"id":51,"left_children":[1,3,5,-1,-1,-1,7,-1,9,-1,11,-1,13,-1,-1],"loss_changes":[1.15304686E-1,1.8242824E-1,1.03766E-1,0E0,0E0,0E0,1.8320636E-1,0E0,1.12644136E-1,0E0,1.5129179E-2,0E0,1.5422747E-2,0E0,0E0],"parents":[2147483647,0,0,1,1,2,2,6,6,8,8,10,10,12,12],"right_children":[2,4,6,-1,-1,-1,8,-1,10,-1,12,-1,14,-1,-1],"split_conditions":[8.9098287E-1,1E0,8.721507E-1,3.2875974E-2,-9.429667E-2,8.086088E-2,9.27825E-1,-6.0877103E-2,1E0,-3.4193065E-2,9.251399E-1,1.10825235E-2,9.186804E-1,1.231332E-2,6.832643E-2],"split_indices":[8,12,15,0,0,0,16,0,2,0,14,0,4,0,0],"split_type":[0,0,0,0,0,0,0,0,0,0,0,0,0,0,0],"sum_hessian":[1.1391404E1,2.442696E0,8.948709E0,1.1051159E0,1.3375803E0,1.0046041E0,7.944104E0,1.8419801E0,6.102124E0,1.2096759E0,4.892448E0,1.4066842E0,3.4857638E0,1.1051041E0,2.3806598E0],"tree_param":{"num_deleted":"0","num_feature":"19","num_nodes":"15","size_leaf_vector":"1"}},{"base_weights":[1.5232916E-2,-5.017345E-2,5.8517467E-2,6.32192E-2,4.048174E-3,1.4371276E-1,-6.7940146E-2,-3.3817117E-3,6.535432E-2,-6.547607E-2,4.5550678E-2,3.7963804E-2,-4.2394926E-3],"categories":[],"categories_nodes":[],"categories_segments":[],"categories_sizes":[],"default_left":[0,0,0,0,0,0,0,0,0,0,0,0,0],"id":52,"left_children":[1,-1,3,-1,5,7,9,-1,-1,-1,11,-1,-1],"loss_changes":[1.09034844E-1,0E0,8.949464E-2,0E0,1.00703225E-1,4.1491017E-2,1.2334271E-1,0E0,0E0,0E0,2.4097286E-2,0E0,0E0],"parents":[2147483647,0,0,2,2,4,4,5,5,6,6,10,10],"right_children":[2,-1,4,-1,6,8,10,-1,-1,-1,12,-1,-1],"split_conditions":[9.673229E-1,-5.017345E-2,1E0,6.32192E-2,8.9598787E-1,1E0,1E0,-3.3817117E-3,6.535432E-2,-6.547607E-2,9.27825E-1,3.7963804E-2,-4.2394926E-3],"split_indices":[15,0,14,0,6,12,5,0,0,0,16,0,0],"split_type":[0,0,0,0,0,0,0,0,0,0,0,0,0],"sum_hessian":[1.1565489E1,1.6683333E0,9.897156E0,1.8522602E0,8.044895E0,2.3973877E0,5.6475077E0,1.0500729E0,1.3473148E0,2.0324829E0,3.6150248E0,1.0583726E0,2.5566523E0],"tree_param":{"num_deleted":"0","num_feature":"19","num_nodes":"13","size_leaf_vector":"1"}},{"base_weights":[-6.098321E-2,1.0839028E-1,-9.351346E-2,7.718671E-2,-2.2229148E-2],"categories":[],"categories_nodes":[],"categories_segments":[],"categories_sizes":[],"default_left":[0,0,0,0,0],"id":53,"left_children":[1,3,-1,-1,-1],"loss_changes":[2.7359846E-1,1.3080469E-1,0E0,0E0,0E0],"parents":[2147483647,0,0,1,1],"right_children":[2,4,-1,-1,-1],"split_conditions":[1E0,6.1091924E-1,-9.351346E-2,7.718671E-2,-2.2229148E-2],"split_indices":[3,16,0,0,0],"split_type":[0,0,0,0,0],"sum_hessian":[4.647056E0,3.1123087E0,1.5347474E0,1.4881599E0,1.6241488E0],"tree_param":{"num_deleted":"0","num_feature":"19","num_nodes":"5","size_leaf_vector":"1"}},{"base_weights":[1.0957632E-2,-1.3726854E-1,6.066527E-2,2.9191563E-2,-8.915083E-2,6.963826E-2,1.0928748E-2,-6.1327554E-2,6.939334E-2,-3.4660492E-2,1.20778196E-1,-1.6428856E-2,5.9631422E-2],"categories":[],"categories_nodes":[],"categories_segments":[],"categories_sizes":[],"default_left":[0,0,0,0,0,0,0,0,0,0,0,0,0],"id":54,"left_children":[1,3,5,-1,-1,-1,7,-1,9,-1,11,-1,-1],"loss_changes":[9.5606215E-2,1.519942E-1,7.902743E-2,0E0,0E0,0E0,1.2074264E-1,0E0,8.429899E-2,0E0,9.689199E-2,0E0,0E0],"parents":[2147483647,0,0,1,1,2,2,6,6,8,8,10,10],"right_children":[2,4,6,-1,-1,-1,8,-1,10,-1,12,-1,-1],"split_conditions":[8.9098287E-1,1E0,7.8632987E-1,2.9191563E-2,-8.915083E-2,6.963826E-2,9.1009814E-1,-6.1327554E-2,7.1575683E-1,-3.4660492E-2,9.764248E-1,-1.6428856E-2,5.9631422E-2],"split_indices":[8,12,14,0,0,0,10,0,5,0,1,0,0],"split_type":[0,0,0,0,0,0,0,0,0,0,0,0,0],"sum_hessian":[1.0845699E1,2.2813342E0,8.564365E0,1.0834231E0,1.1979109E0,1.1011395E0,7.4632254E0,1.0604608E0,6.402765E0,1.1207799E0,5.281985E0,1.7164912E0,3.5654936E0],"tree_param":{"num_deleted":"0","num_feature":"19","num_nodes":"13","size_leaf_vector":"1"}},{"base_weights":[1.689723E-2,-4.5905493E-2,5.722797E-2,6.558729E-2,1.00584375E-2,4.5700252E-2,-3.7688915E-2,-5.8454398E-2,4.6781387E-2,-4.7707144E-2,1.3067345E-1,-2.4835208E-2,7.0543006E-2],"categories":[],"categories_nodes":[],"categories_segments":[],"categories_sizes":[],"default_left":[0,0,0,0,0,0,0,0,0,0,0,0,0],"id":55,"left_children":[1,-1,3,-1,5,-1,7,-1,9,-1,11,-1,-1],"loss_changes":[9.138388E-2,0E0,7.752611E-2,0E0,6.791391E-2,0E0,1.1072516E-1,0E0,1.2065558E-1,0E0,1.2334944E-1,0E0,0E0],"parents":[2147483647,0,0,2,2,4,4,6,6,8,8,10,10],"right_children":[2,-1,4,-1,6,-1,8,-1,10,-1,12,-1,-1],"split_conditions":[9.673229E-1,-4.5905493E-2,7.098698E-1,6.558729E-2,9.873484E-1,4.5700252E-2,8.7040293E-1,-5.8454398E-2,9.4850254E-1,-4.7707144E-2,9.9636686E-1,-2.4835208E-2,7.0543006E-2],"split_indices":[15,0,7,0,14,0,0,0,12,0,8,0,0],"split_type":[0,0,0,0,0,0,0,0,0,0,0,0,0],"sum_hessian":[1.1057366E1,1.5851135E0,9.472253E0,1.3201921E0,8.1520605E0,1.4979889E0,6.654072E0,1.8693662E0,4.7847056E0,1.1262345E0,3.658471E0,1.2703716E0,2.3880994E0],"tree_param":{"num_deleted":"0","num_feature":"19","num_nodes":"13","size_leaf_vector":"1"}},{"base_weights":[-6.345863E-2,9.2388354E-2,-8.849389E-2,7.11118E-2,-2.2190416E-2],"categories":[],"categories_nodes":[],"categories_segments":[],"categories_sizes":[],"default_left":[0,0,0,0,0],"id":56,"left_children":[1,3,-1,-1,-1],"loss_changes":[2.1689776E-1,1.1145051E-1,0E0,0E0,0E0],"parents":[2147483647,0,0,1,1],"right_children":[2,4,-1,-1,-1],"split_conditions":[1E0,6.1091924E-1,-8.849389E-2,7.11118E-2,-2.2190416E-2],"split_indices":[3,16,0,0,0],"split_type":[0,0,0,0,0],"sum_hessian":[4.2559686E0,2.90287E0,1.3530989E0,1.3254608E0,1.577409E0],"tree_param":{"num_deleted":"0","num_feature":"19","num_nodes":"5","size_leaf_vector":"1"}},{"base_weights":[7.680206E-3,1.553573E-1,-4.4190306E-2,1.8304702E-3,7.186854E-2,5.394223E-2,-9.566073E-2,3.1605877E-2,-1.4041336E-1,4.0781293E-2,-6.743682E-2,-7.339149E-3,2.6433846E-2],"categories":[],"categories_nodes":[],"categories_segments":[],"categories_sizes":[],"default_left":[0,0,0,0,0,0,0,0,0,0,0,0,0],"id":57,"left_children":[1,3,5,-1,-1,-1,7,-1,9,11,-1,-1,-1],"loss_changes":[9.403519E-2,3.8498417E-2,1.2327248E-1,0E0,0E0,0E0,8.796498E-2,0E0,1.1743209E-1,1.17175225E-2,0E0,0E0,0E0],"parents":[2147483647,0,0,1,1,2,2,6,6,8,8,9,9],"right_children":[2,4,6,-1,-1,-1,8,-1,10,12,-1,-1,-1],"split_conditions":[1E0,8.5496503E-1,7.7143896E-1,1.8304702E-3,7.186854E-2,5.394223E-2,7.55703E-1,3.1605877E-2,8.7040293E-1,7.4497354E-1,-6.743682E-2,-7.339149E-3,2.6433846E-2],"split_indices":[11,10,13,0,0,0,9,0,0,0,0,0,0],"split_type":[0,0,0,0,0,0,0,0,0,0,0,0,0],"sum_hessian":[1.0379755E1,2.1795123E0,8.200243E0,1.1729226E0,1.0065895E0,1.0663046E0,7.1339383E0,1.0524726E0,6.081466E0,2.0963333E0,3.9851327E0,1.0845088E0,1.0118246E0],"tree_param":{"num_deleted":"0","num_feature":"19","num_nodes":"13","size_leaf_vector":"1"}},{"base_weights":[1.8938588E-2,5.595552E-2,-2.6552688E-2,-7.2665304E-2,5.8190722E-2,6.2802084E-2,-2.9060442E-3,4.770263E-2,-6.0884163E-2,2.1428967E-2,-3.487335E-2],"categories":[],"categories_nodes":[],"categories_segments":[],"categories_sizes":[],"default_left":[0,0,0,0,0,0,0,0,0,0,0],"id":58,"left_children":[1,-1,3,-1,5,-1,7,-1,9,-1,-1],"loss_changes":[9.366994E-2,0E0,1.9737251E-1,0E0,7.4538216E-2,0E0,7.245961E-2,0E0,4.9669653E-2,0E0,0E0],"parents":[2147483647,0,0,2,2,4,4,6,6,8,8],"right_children":[2,-1,4,-1,6,-1,8,-1,10,-1,-1],"split_conditions":[7.165124E-1,5.595552E-2,1E0,-7.2665304E-2,8.9598787E-1,6.2802084E-2,1E0,4.770263E-2,8.7807125E-1,2.1428967E-2,-3.487335E-2],"split_indices":[0,0,12,0,6,0,18,0,3,0,0],"split_type":[0,0,0,0,0,0,0,0,0,0,0],"sum_hessian":[1.0637478E1,1.6092532E0,9.028225E0,2.0226078E0,7.005617E0,1.3181714E0,5.6874456E0,1.0401279E0,4.647318E0,1.2852448E0,3.3620727E0],"tree_param":{"num_deleted":"0","num_feature":"19","num_nodes":"11","size_leaf_vector":"1"}},{"base_weights":[-6.19722E-2,8.296016E-2,-8.405309E-2,6.685649E-2,-2.1880668E-2],"categories":[],"categories_nodes":[],"categories_segments":[],"categories_sizes":[],"default_left":[0,0,0,0,0],"id":59,"left_children":[1,3,-1,-1,-1],"loss_changes":[1.8031457E-1,9.816792E-2,0E0,0E0,0E0],"parents":[2147483647,0,0,1,1],"right_children":[2,4,-1,-1,-1],"split_conditions":[1E0,6.1091924E-1,-8.405309E-2,6.685649E-2,-2.1880668E-2],"split_indices":[3,16,0,0,0],"split_type":[0,0,0,0,0],"sum_hessian":[3.9666839E0,2.7559671E0,1.2107167E0,1.2261523E0,1.5298147E0],"tree_param":{"num_deleted":"0","num_feature":"19","num_nodes":"5","size_leaf_vector":"1"}},{"base_weights":[8.134132E-3,1.485739E-1,-4.1696563E-2,6.2380824E-3,6.2209394E-2,4.6531603E-2,-8.6689204E-2,2.9714225E-2,-1.3059631E-1,6.9463723E-3,-1.8098386E-1,-8.256245E-2,-2.7947778E-2],"categories":[],"categories_nodes":[],"categories_segments":[],"categories_sizes":[],"default_left":[0,0,0,0,0,0,0,0,0,0,0,0,0],"id":60,"left_children":[1,3,5,-1,-1,-1,7,-1,9,-1,11,-1,-1],"loss_changes":[8.33682E-2,1.9030295E-2,9.243252E-2,0E0,0E0,0E0,7.737691E-2,0E0,5.704491E-2,0E0,1.7822236E-2,0E0,0E0],"parents":[2147483647,0,0,1,1,2,2,6,6,8,8,10,10],"right_children":[2,4,6,-1,-1,-1,8,-1,10,-1,12,-1,-1],"split_conditions":[1E0,7.965605E-1,7.931911E-1,6.2380824E-3,6.2209394E-2,4.6531603E-2,7.8671294E-1,2.9714225E-2,8.7040293E-1,6.9463723E-3,1E0,-8.256245E-2,-2.7947778E-2],"split_indices":[11,10,13,0,0,0,6,0,0,0,3,0,0],"split_type":[0,0,0,0,0,0,0,0,0,0,0,0,0],"sum_hessian":[1.0027555E1,2.1071942E0,7.9203615E0,1.0905648E0,1.0166295E0,1.018407E0,6.9019547E0,1.0795182E0,5.8224363E0,1.570558E0,4.2518783E0,1.0219012E0,3.229977E0],"tree_param":{"num_deleted":"0","num_feature":"19","num_nodes":"13","size_leaf_vector":"1"}},{"base_weights":[1.6530398E-2,5.359414E-2,-2.8005587E-2,-6.689167E-2,4.7092423E-2,5.8718856E-2,-1.1188997E-2,-4.8140213E-2,4.518332E-2,-3.608026E-2,4.3269746E-2],"categories":[],"categories_nodes":[],"categories_segments":[],"categories_sizes":[],"default_left":[0,0,0,0,0,0,0,0,0,0,0],"id":61,"left_children":[1,-1,3,-1,5,-1,7,-1,9,-1,-1],"loss_changes":[8.6487785E-2,0E0,1.5278976E-1,0E0,7.0118465E-2,0E0,6.2611304E-2,0E0,1.0839131E-1,0E0,0E0],"parents":[2147483647,0,0,2,2,4,4,6,6,8,8],"right_children":[2,-1,4,-1,6,-1,8,-1,10,-1,-1],"split_conditions":[7.165124E-1,5.359414E-2,1E0,-6.689167E-2,8.9598787E-1,5.8718856E-2,9.2126447E-1,-4.8140213E-2,1E0,-3.608026E-2,4.3269746E-2],"split_indices":[0,0,12,0,6,0,8,0,4,0,0],"split_type":[0,0,0,0,0,0,0,0,0,0,0],"sum_hessian":[1.0285921E1,1.5677631E0,8.718158E0,1.8767436E0,6.8414145E0,1.2627157E0,5.5786986E0,1.0230411E0,4.5556574E0,1.6257681E0,2.9298894E0],"tree_param":{"num_deleted":"0","num_feature":"19","num_nodes":"11","size_leaf_vector":"1"}},{"base_weights":[-5.8430802E-2,4.5944154E-2,-1.8700792E-1,1.00484565E-2,-8.940232E-2],"categories":[],"categories_nodes":[],"categories_segments":[],"categories_sizes":[],"default_left":[0,0,0,0,0],"id":62,"left_children":[1,-1,3,-1,-1],"loss_changes":[1.5726043E-1,0E0,9.29805E-2,0E0,0E0],"parents":[2147483647,0,0,2,2],"right_children":[2,-1,4,-1,-1],"split_conditions":[6.1091924E-1,4.5944154E-2,9.9636686E-1,1.00484565E-2,-8.940232E-2],"split_indices":[16,0,8,0,0],"split_type":[0,0,0,0,0],"sum_hessian":[3.727992E0,1.3369324E0,2.3910596E0,1.0344176E0,1.356642E0],"tree_param":{"num_deleted":"0","num_feature":"19","num_nodes":"5","size_leaf_vector":"1"}},{"base_weights":[1.0179475E-2,-3.955451E-2,5.6182664E-2,-2.2337085E-2,1.0266395E-1,-1.8643424E-2,1.5100165E-1,6.183552E-3,5.5782184E-2],"categories":[],"categories_nodes":[],"categories_segments":[],"categories_sizes":[],"default_left":[0,0,0,0,0,0,0,0,0],"id":63,"left_children":[1,-1,3,-1,5,-1,7,-1,-1],"loss_changes":[7.768183E-2,0E0,6.1234318E-2,0E0,6.4589456E-2,0E0,2.1905929E-2,0E0,0E0],"parents":[2147483647,0,0,2,2,4,4,6,6],"right_children":[2,-1,4,-1,6,-1,8,-1,-1],"split_conditions":[8.9098287E-1,-3.955451E-2,1E0,-2.2337085E-2,9.27825E-1,-1.8643424E-2,9.873484E-1,6.183552E-3,5.5782184E-2],"split_indices":[8,0,1,0,16,0,14,0,0],"split_type":[0,0,0,0,0,0,0,0,0],"sum_hessian":[9.755604E0,1.9302331E0,7.825371E0,1.8956411E0,5.9297295E0,1.2799766E0,4.649753E0,1.3186353E0,3.3311176E0],"tree_param":{"num_deleted":"0","num_feature":"19","num_nodes":"9","size_leaf_vector":"1"}},{"base_weights":[1.3984395E-2,5.165047E-2,-2.9777218E-2,-6.191156E-2,3.738026E-2,5.5190735E-2,-1.8527087E-2,-4.551076E-2,3.343293E-2,-3.5432078E-2,3.736415E-2],"categories":[],"categories_nodes":[],"categories_segments":[],"categories_sizes":[],"default_left":[0,0,0,0,0,0,0,0,0,0,0],"id":64,"left_children":[1,-1,3,-1,5,-1,7,-1,9,-1,-1],"loss_changes":[8.139193E-2,0E0,1.2017123E-1,0E0,6.664766E-2,0E0,5.0012548E-2,0E0,9.0528965E-2,0E0,0E0],"parents":[2147483647,0,0,2,2,4,4,6,6,8,8],"right_children":[2,-1,4,-1,6,-1,8,-1,10,-1,-1],"split_conditions":[7.165124E-1,5.165047E-2,1E0,-6.191156E-2,8.9598787E-1,5.5190735E-2,9.2126447E-1,-4.551076E-2,1E0,-3.5432078E-2,3.736415E-2],"split_indices":[0,0,12,0,6,0,8,0,4,0,0],"split_type":[0,0,0,0,0,0,0,0,0,0,0],"sum_hessian":[1.0017199E1,1.5348806E0,8.482318E0,1.7658788E0,6.7164392E0,1.2219318E0,5.494508E0,1.0033312E0,4.4911766E0,1.5751534E0,2.916023E0],"tree_param":{"num_deleted":"0","num_feature":"19","num_nodes":"11","size_leaf_vector":"1"}},{"base_weights":[-5.84491E-2,7.770741E-2,-7.816796E-2,6.0377996E-2,-1.8747535E-2],"categories":[],"categories_nodes":[],"categories_segments":[],"categories_sizes":[],"default_left":[0,0,0,0,0],"id":65,"left_children":[1,3,-1,-1,-1],"loss_changes":[1.4433295E-1,7.258792E-2,0E0,0E0,0E0],"parents":[2147483647,0,0,1,1],"right_children":[2,4,-1,-1,-1],"split_conditions":[1E0,6.1091924E-1,-7.816796E-2,6.0377996E-2,-1.8747535E-2],"split_indices":[3,16,0,0,0],"split_type":[0,0,0,0,0],"sum_hessian":[3.5091345E0,2.4644334E0,1.0447009E0,1.0784792E0,1.3859544E0],"tree_param":{"num_deleted":"0","num_feature":"19","num_nodes":"5","size_leaf_vector":"1"}},{"base_weights":[9.137898E-3,1.5429649E-1,-4.3756053E-2,6.522754E-3,6.330961E-2,3.4779362E-2,-8.291656E-2,-5.757023E-2,-2.0803763E-2,-3.5637774E-2,8.877234E-3],"categories":[],"categories_nodes":[],"categories_segments":[],"categories_sizes":[],"default_left":[0,0,0,0,0,0,0,0,0,0,0],"id":66,"left_children":[1,3,5,-1,-1,-1,7,-1,9,-1,-1],"loss_changes":[8.727127E-2,1.8136524E-2,6.255016E-2,0E0,0E0,0E0,4.597359E-2,0E0,3.227089E-2,0E0,0E0],"parents":[2147483647,0,0,1,1,2,2,6,6,8,8],"right_children":[2,4,6,-1,-1,-1,8,-1,10,-1,-1],"split_conditions":[1E0,7.965605E-1,7.8671294E-1,6.522754E-3,6.330961E-2,3.4779362E-2,9.27825E-1,-5.757023E-2,1E0,-3.5637774E-2,8.877234E-3],"split_indices":[11,10,6,0,0,0,16,0,2,0,0],"split_type":[0,0,0,0,0,0,0,0,0,0,0],"sum_hessian":[9.487074E0,2.0217175E0,7.4653563E0,1.0205601E0,1.0011575E0,1.0841278E0,6.3812284E0,1.5579933E0,4.823235E0,1.1771312E0,3.6461039E0],"tree_param":{"num_deleted":"0","num_feature":"19","num_nodes":"11","size_leaf_vector":"1"}},{"base_weights":[1.4545511E-2,-4.45721E-2,5.5114288E-2,-2.9684236E-2,9.0400815E-2,7.978538E-2,1.6414622E-2,4.4384096E-2,-4.558639E-2,-4.150279E-2,7.3328903E-3],"categories":[],"categories_nodes":[],"categories_segments":[],"categories_sizes":[],"default_left":[0,0,0,0,0,0,0,0,0,0,0],"id":67,"left_children":[1,-1,3,-1,5,-1,7,-1,9,-1,-1],"loss_changes":[7.921013E-2,0E0,5.9633933E-2,0E0,1.0095806E-1,0E0,6.1959404E-2,0E0,3.823713E-2,0E0,0E0],"parents":[2147483647,0,0,2,2,4,4,6,6,8,8],"right_children":[2,-1,4,-1,6,-1,8,-1,10,-1,-1],"split_conditions":[9.673229E-1,-4.45721E-2,7.4645394E-1,-2.9684236E-2,8.9098287E-1,7.978538E-2,9.873484E-1,4.4384096E-2,9.422492E-1,-4.150279E-2,7.3328903E-3],"split_indices":[15,0,1,0,8,0,14,0,3,0,0],"split_type":[0,0,0,0,0,0,0,0,0,0,0],"sum_hessian":[9.732319E0,1.4081508E0,8.324167E0,1.2150629E0,7.1091046E0,1.3385233E0,5.7705817E0,1.4045945E0,4.365987E0,1.4585689E0,2.9074183E0],"tree_param":{"num_deleted":"0","num_feature":"19","num_nodes":"11","size_leaf_vector":"1"}},{"base_weights":[-5.847746E-2,3.9107297E-2,-1.7110072E-1,5.324908E-3,-8.124244E-2],"categories":[],"categories_nodes":[],"categories_segments":[],"categories_sizes":[],"default_left":[0,0,0,0,0],"id":68,"left_children":[1,-1,3,-1,-1],"loss_changes":[1.1392937E-1,0E0,6.3765645E-2,0E0,0E0],"parents":[2147483647,0,0,2,2],"right_children":[2,-1,4,-1,-1],"split_conditions":[6.1091924E-1,3.9107297E-2,9.766338E-1,5.324908E-3,-8.124244E-2],"split_indices":[16,0,15,0,0],"split_type":[0,0,0,0,0],"sum_hessian":[3.3082757E0,1.1771258E0,2.13115E0,1.0204165E0,1.1107336E0],"tree_param":{"num_deleted":"0","num_feature":"19","num_nodes":"5","size_leaf_vector":"1"}},{"base_weights":[9.064202E-3,4.5236435E-2,-4.2800866E-2,3.283114E-2,-7.9507194E-2,-5.3340502E-2,-2.3275804E-2,-3.4364685E-2,2.4577698E-2,2.1985194E-3,8.447203E-3],"categories":[],"categories_nodes":[],"categories_segments":[],"categories_sizes":[],"default_left":[0,0,0,0,0,0,0,0,0,0,0],"id":69,"left_children":[1,-1,3,-1,5,-1,7,-1,9,-1,-1],"loss_changes":[8.190909E-2,0E0,5.5048667E-2,0E0,3.599984E-2,0E0,2.8017027E-2,0E0,7.8221085E-5,0E0,0E0],"parents":[2147483647,0,0,2,2,4,4,6,6,8,8],"right_children":[2,-1,4,-1,6,-1,8,-1,10,-1,-1],"split_conditions":[1E0,4.5236435E-2,7.8671294E-1,3.283114E-2,9.27825E-1,-5.3340502E-2,1E0,-3.4364685E-2,1E0,2.1985194E-3,8.447203E-3],"split_indices":[11,0,6,0,16,0,2,0,3,0,0],"split_type":[0,0,0,0,0,0,0,0,0,0,0],"sum_hessian":[9.26529E0,1.9712994E0,7.2939906E0,1.0320755E0,6.261915E0,1.4919567E0,4.7699585E0,1.1612711E0,3.6086874E0,1.143882E0,2.4648054E0],"tree_param":{"num_deleted":"0","num_feature":"19","num_nodes":"11","size_leaf_vector":"1"}},{"base_weights":[1.3004917E-2,-4.2230062E-2,5.172457E-2,-2.889891E-2,8.624023E-2,7.5434014E-2,1.7174296E-2,4.236312E-2,-4.1710548E-2,-3.800605E-2,6.591684E-3],"categories":[],"categories_nodes":[],"categories_segments":[],"categories_sizes":[],"default_left":[0,0,0,0,0,0,0,0,0,0,0],"id":70,"left_children":[1,-1,3,-1,5,-1,7,-1,9,-1,-1],"loss_changes":[6.963773E-2,0E0,5.4798525E-2,0E0,8.588305E-2,0E0,5.4446667E-2,0E0,3.1356245E-2,0E0,0E0],"parents":[2147483647,0,0,2,2,4,4,6,6,8,8],"right_children":[2,-1,4,-1,6,-1,8,-1,10,-1,-1],"split_conditions":[9.673229E-1,-4.2230062E-2,7.4645394E-1,-2.889891E-2,8.9098287E-1,7.5434014E-2,9.873484E-1,4.236312E-2,9.422492E-1,-3.800605E-2,6.591684E-3],"split_indices":[15,0,1,0,8,0,14,0,3,0,0],"split_type":[0,0,0,0,0,0,0,0,0,0,0],"sum_hessian":[9.473082E0,1.3753713E0,8.09771E0,1.192331E0,6.9053793E0,1.2572786E0,5.6481004E0,1.3681428E0,4.279958E0,1.4096398E0,2.870318E0],"tree_param":{"num_deleted":"0","num_feature":"19","num_nodes":"11","size_leaf_vector":"1"}},{"base_weights":[-5.5112254E-2,3.6739E-2,-1.6176106E-1,4.224984E-3,-7.737978E-2],"categories":[],"categories_nodes":[],"categories_segments":[],"categories_sizes":[],"default_left":[0,0,0,0,0],"id":71,"left_children":[1,-1,3,-1,-1],"loss_changes":[9.858635E-2,0E0,5.4868616E-2,0E0,0E0],"parents":[2147483647,0,0,2,2],"right_children":[2,-1,4,-1,-1],"split_conditions":[6.1091924E-1,3.6739E-2,9.766338E-1,4.224984E-3,-7.737978E-2],"split_indices":[16,0,15,0,0],"split_type":[0,0,0,0,0],"sum_hessian":[3.1596587E0,1.1299498E0,2.0297089E0,1.0193834E0,1.0103256E0],"tree_param":{"num_deleted":"0","num_feature":"19","num_nodes":"5","size_leaf_vector":"1"}},{"base_weights":[8.000653E-3,4.302631E-2,-4.167644E-2,1.7670268E-2,-8.679187E-2,2.8130721E-2,-1.547819E-1,-1.3161235E-3,-6.338611E-2],"categories":[],"categories_nodes":[],"categories_segments":[],"categories_sizes":[],"default_left":[0,0,0,0,0,0,0,0,0],"id":72,"left_children":[1,-1,3,-1,5,-1,7,-1,-1],"loss_changes":[7.370843E-2,0E0,4.205192E-2,0E0,8.8469125E-2,0E0,3.94694E-2,0E0,0E0],"parents":[2147483647,0,0,2,2,4,4,6,6],"right_children":[2,-1,4,-1,6,-1,8,-1,-1],"split_conditions":[1E0,4.302631E-2,1E0,1.7670268E-2,8.7040293E-1,2.8130721E-2,9.9636686E-1,-1.3161235E-3,-6.338611E-2],"split_indices":[11,0,12,0,0,0,8,0,0],"split_type":[0,0,0,0,0,0,0,0,0],"sum_hessian":[9.068117E0,1.9272754E0,7.1408424E0,2.1166234E0,5.024219E0,1.2706356E0,3.7535832E0,1.3194249E0,2.4341583E0],"tree_param":{"num_deleted":"0","num_feature":"19","num_nodes":"9","size_leaf_vector":"1"}},{"base_weights":[1.2457742E-2,-3.962863E-2,4.9035832E-2,-2.7757576E-2,8.232143E-2,6.906107E-2,8.53219E-3,3.844084E-2,-4.9543682E-2,-3.5377808E-2,8.883926E-4],"categories":[],"categories_nodes":[],"categories_segments":[],"categories_sizes":[],"default_left":[0,0,0,0,0,0,0,0,0,0,0],"id":73,"left_children":[1,-1,3,-1,5,-1,7,-1,9,-1,-1],"loss_changes":[6.063815E-2,0E0,4.9571726E-2,0E0,8.247464E-2,0E0,4.941935E-2,0E0,1.7924838E-2,0E0,0E0],"parents":[2147483647,0,0,2,2,4,4,6,6,8,8],"right_children":[2,-1,4,-1,6,-1,8,-1,10,-1,-1],"split_conditions":[9.673229E-1,-3.962863E-2,7.4645394E-1,-2.7757576E-2,8.952854E-1,6.906107E-2,9.873484E-1,3.844084E-2,9.422492E-1,-3.5377808E-2,8.883926E-4],"split_indices":[15,0,1,0,6,0,14,0,3,0,0],"split_type":[0,0,0,0,0,0,0,0,0,0,0],"sum_hessian":[9.243206E0,1.3392581E0,7.9039483E0,1.1658667E0,6.7380815E0,1.5373367E0,5.2007446E0,1.3055931E0,3.8951516E0,1.1506077E0,2.744544E0],"tree_param":{"num_deleted":"0","num_feature":"19","num_nodes":"11","size_leaf_vector":"1"}},{"base_weights":[-5.1641922E-2,3.473607E-2,-4.598277E-2],"categories":[],"categories_nodes":[],"categories_segments":[],"categories_sizes":[],"default_left":[0,0,0],"id":74,"left_children":[1,-1,-1],"loss_changes":[8.633726E-2,0E0,0E0],"parents":[2147483647,0,0],"right_children":[2,-1,-1],"split_conditions":[6.1091924E-1,3.473607E-2,-4.598277E-2],"split_indices":[16,0,0],"split_type":[0,0,0],"sum_hessian":[3.0307996E0,1.0922331E0,1.9385666E0],"tree_param":{"num_deleted":"0","num_feature":"19","num_nodes":"3","size_leaf_vector":"1"}},{"base_weights":[8.213443E-3,-1.1374452E-1,5.7410236E-2,-3.5698393E-3,-4.7367018E-2,7.340419E-2,-1.1967309E-2,3.993067E-2,-6.889903E-2,-4.2605117E-2,-4.930217E-3],"categories":[],"categories_nodes":[],"categories_segments":[],"categories_sizes":[],"default_left":[0,0,0,0,0,0,0,0,0,0,0],"id":75,"left_children":[1,3,5,-1,-1,-1,7,-1,9,-1,-1],"loss_changes":[6.604288E-2,1.24478005E-2,1.03389956E-1,0E0,0E0,0E0,6.3643366E-2,0E0,1.83642E-2,0E0,0E0],"parents":[2147483647,0,0,1,1,2,2,6,6,8,8],"right_children":[2,4,6,-1,-1,-1,8,-1,10,-1,-1],"split_conditions":[8.7807125E-1,3.9430916E-1,1E0,-3.5698393E-3,-4.7367018E-2,7.340419E-2,9.0420943E-1,3.993067E-2,9.387703E-1,-4.2605117E-2,-4.930217E-3],"split_indices":[3,5,11,0,0,0,2,0,0,0,0],"split_type":[0,0,0,0,0,0,0,0,0,0,0],"sum_hessian":[8.918894E0,2.1865199E0,6.732374E0,1.0450679E0,1.141452E0,1.1368588E0,5.5955153E0,1.1999518E0,4.3955636E0,1.1232497E0,3.2723138E0],"tree_param":{"num_deleted":"0","num_feature":"19","num_nodes":"11","size_leaf_vector":"1"}},{"base_weights":[9.6097775E-3,4.608734E-2,-3.1005781E-2,-5.4398093E-2,2.6694898E-2,-3.205768E-2,6.7449376E-2,-2.6092382E-2,1.3710843E-1,-1.0681498E-2,5.9796084E-2],"categories":[],"categories_nodes":[],"categories_segments":[],"categories_sizes":[],"default_left":[0,0,0,0,0,0,0,0,0,0,0],"id":76,"left_children":[1,-1,3,-1,5,-1,7,-1,9,-1,-1],"loss_changes":[6.363138E-2,0E0,8.014797E-2,0E0,4.6101145E-2,0E0,7.741429E-2,0E0,5.6347184E-2,0E0,0E0],"parents":[2147483647,0,0,2,2,4,4,6,6,8,8],"right_children":[2,-1,4,-1,6,-1,8,-1,10,-1,-1],"split_conditions":[7.165124E-1,4.608734E-2,1E0,-5.4398093E-2,8.7040293E-1,-3.205768E-2,9.9636686E-1,-2.6092382E-2,9.251399E-1,-1.0681498E-2,5.9796084E-2],"split_indices":[0,0,12,0,0,0,8,0,14,0,0],"split_type":[0,0,0,0,0,0,0,0,0,0,0],"sum_hessian":[9.06424E0,1.3818988E0,7.682342E0,1.5366176E0,6.1457243E0,1.0576738E0,5.088051E0,1.5044122E0,3.5836384E0,1.0622597E0,2.521379E0],"tree_param":{"num_deleted":"0","num_feature":"19","num_nodes":"11","size_leaf_vector":"1"}},{"base_weights":[-4.534828E-2,3.1786386E-2,-4.4785175E-2],"categories":[],"categories_nodes":[],"categories_segments":[],"categories_sizes":[],"default_left":[0,0,0],"id":77,"left_children":[1,-1,-1],"loss_changes":[7.7607535E-2,0E0,0E0],"parents":[2147483647,0,0],"right_children":[2,-1,-1],"split_conditions":[1E0,3.1786386E-2,-4.4785175E-2],"split_indices":[8,0,0],"split_type":[0,0,0],"sum_hessian":[2.9292355E0,1.1849033E0,1.7443322E0],"tree_param":{"num_deleted":"0","num_feature":"19","num_nodes":"3","size_leaf_vector":"1"}},{"base_weights":[8.802554E-3,-3.842236E-2,5.1690396E-2,-2.0343656E-2,9.8099574E-2,-4.3115863E-3,3.9673366E-2],"categories":[],"categories_nodes":[],"categories_segments":[],"categories_sizes":[],"default_left":[0,0,0,0,0,0,0],"id":78,"left_children":[1,-1,3,-1,5,-1,-1],"loss_changes":[6.3768156E-2,0E0,5.1713172E-2,0E0,2.5944624E-2,0E0,0E0],"parents":[2147483647,0,0,2,2,4,4],"right_children":[2,-1,4,-1,6,-1,-1],"split_conditions":[8.9098287E-1,-3.842236E-2,8.7807125E-1,-2.0343656E-2,9.764248E-1,-4.3115863E-3,3.9673366E-2],"split_indices":[8,0,3,0,1,0,0],"split_type":[0,0,0,0,0,0,0],"sum_hessian":[8.734994E0,1.6100937E0,7.1249003E0,1.8639896E0,5.260911E0,1.3600562E0,3.9008548E0],"tree_param":{"num_deleted":"0","num_feature":"19","num_nodes":"7","size_leaf_vector":"1"}},{"base_weights":[6.7976173E-3,4.2326417E-2,-3.0368282E-2,3.9561618E-2,-7.7321045E-2,-6.6909805E-2,-1.8311473E-2,3.5917845E-2,-6.811785E-2,8.622273E-3,-3.0944772E-2],"categories":[],"categories_nodes":[],"categories_segments":[],"categories_sizes":[],"default_left":[0,0,0,0,0,0,0,0,0,0,0],"id":79,"left_children":[1,-1,3,-1,5,-1,7,-1,9,-1,-1],"loss_changes":[5.3634237E-2,0E0,7.545859E-2,0E0,5.8466893E-2,0E0,5.1244047E-2,0E0,2.075427E-2,0E0,0E0],"parents":[2147483647,0,0,2,2,4,4,6,6,8,8],"right_children":[2,-1,4,-1,6,-1,8,-1,10,-1,-1],"split_conditions":[7.165124E-1,4.2326417E-2,9.9606556E-1,3.9561618E-2,1E0,-6.6909805E-2,9.028099E-1,3.5917845E-2,9.873484E-1,8.622273E-3,-3.0944772E-2],"split_indices":[0,0,18,0,12,0,6,0,14,0,0],"split_type":[0,0,0,0,0,0,0,0,0,0,0],"sum_hessian":[8.887675E0,1.3204312E0,7.5672445E0,1.2925079E0,6.274737E0,1.0074501E0,5.267287E0,1.0243858E0,4.242901E0,1.174653E0,3.0682478E0],"tree_param":{"num_deleted":"0","num_feature":"19","num_nodes":"11","size_leaf_vector":"1"}},{"base_weights":[-3.953441E-2,3.4606963E-2,-4.1634567E-2],"categories":[],"categories_nodes":[],"categories_segments":[],"categories_sizes":[],"default_left":[0,0,0],"id":80,"left_children":[1,-1,-1],"loss_changes":[7.546499E-2,0E0,0E0],"parents":[2147483647,0,0],"right_children":[2,-1,-1],"split_conditions":[6.1091924E-1,3.4606963E-2,-4.1634567E-2],"split_indices":[16,0,0],"split_type":[0,0,0],"sum_hessian":[2.8676503E0,1.0565029E0,1.8111472E0],"tree_param":{"num_deleted":"0","num_feature":"19","num_nodes":"3","size_leaf_vector":"1"}},{"base_weights":[4.4685053E-3,3.855452E-2,-4.087868E-2,2.5938889E-2,-7.677829E-2,1.1784656E-2,-1.2515572E-1,7.2578987E-4,-4.808361E-2],"categories":[],"categories_nodes":[],"categories_segments":[],"categories_sizes":[],"default_left":[0,0,0,0,0,0,0,0,0],"id":81,"left_children":[1,-1,3,-1,5,-1,7,-1,-1],"loss_changes":[5.887373E-2,0E0,4.2017825E-2,0E0,4.178698E-2,0E0,2.2226058E-2,0E0,0E0],"parents":[2147483647,0,0,2,2,4,4,6,6],"right_children":[2,-1,4,-1,6,-1,8,-1,-1],"split_conditions":[1E0,3.855452E-2,1E0,2.5938889E-2,8.7040293E-1,1.1784656E-2,9.8850006E-1,7.2578987E-4,-4.808361E-2],"split_indices":[11,0,9,0,0,0,13,0,0],"split_type":[0,0,0,0,0,0,0,0,0],"sum_hessian":[8.5322075E0,1.7931224E0,6.739085E0,1.1722968E0,5.566788E0,1.6930532E0,3.8737352E0,1.0372641E0,2.836471E0],"tree_param":{"num_deleted":"0","num_feature":"19","num_nodes":"9","size_leaf_vector":"1"}},{"base_weights":[9.892461E-3,-4.1475877E-2,4.8243932E-2,4.841654E-2,1.6043028E-3,-6.040832E-2,6.945151E-2,-1.1098019E-2,3.1476047E-2],"categories":[],"categories_nodes":[],"categories_segments":[],"categories_sizes":[],"default_left":[0,0,0,0,0,0,0,0,0],"id":82,"left_children":[1,-1,3,-1,5,-1,7,-1,-1],"loss_changes":[6.167246E-2,0E0,4.423359E-2,0E0,1.1010892E-1,0E0,2.6440103E-2,0E0,0E0],"parents":[2147483647,0,0,2,2,4,4,6,6],"right_children":[2,-1,4,-1,6,-1,8,-1,-1],"split_conditions":[9.673229E-1,-4.1475877E-2,8.948262E-1,4.841654E-2,8.433774E-1,-6.040832E-2,9.9636686E-1,-1.1098019E-2,3.1476047E-2],"split_indices":[15,0,12,0,0,0,8,0,0],"split_type":[0,0,0,0,0,0,0,0,0],"sum_hessian":[8.68084E0,1.2494664E0,7.431373E0,1.4510055E0,5.9803677E0,1.0052613E0,4.9751062E0,1.2326906E0,3.7424157E0],"tree_param":{"num_deleted":"0","num_feature":"19","num_nodes":"9","size_leaf_vector":"1"}},{"base_weights":[-3.6732085E-2,3.2384776E-2,-3.883567E-2],"categories":[],"categories_nodes":[],"categories_segments":[],"categories_sizes":[],"default_left":[0,0,0],"id":83,"left_children":[1,-1,-1],"loss_changes":[6.45051E-2,0E0,0E0],"parents":[2147483647,0,0],"right_children":[2,-1,-1],"split_conditions":[6.1091924E-1,3.2384776E-2,-3.883567E-2],"split_indices":[16,0,0],"split_type":[0,0,0],"sum_hessian":[2.7667768E0,1.0164504E0,1.7503263E0],"tree_param":{"num_deleted":"0","num_feature":"19","num_nodes":"3","size_leaf_vector":"1"}},{"base_weights":[7.088651E-3,-3.7123736E-2,4.8397277E-2,-1.8879682E-2,9.169512E-2,5.5038895E-2,1.1038751E-2],"categories":[],"categories_nodes":[],"categories_segments":[],"categories_sizes":[],"default_left":[0,0,0,0,0,0,0],"id":84,"left_children":[1,-1,3,-1,5,-1,-1],"loss_changes":[5.693744E-2,0E0,4.3772146E-2,0E0,2.38958E-2,0E0,0E0],"parents":[2147483647,0,0,2,2,4,4],"right_children":[2,-1,4,-1,6,-1,-1],"split_conditions":[8.9098287E-1,-3.7123736E-2,8.7807125E-1,-1.8879682E-2,7.4497354E-1,5.5038895E-2,1.1038751E-2],"split_indices":[8,0,3,0,0,0,0],"split_type":[0,0,0,0,0,0,0],"sum_hessian":[8.42689E0,1.5432868E0,6.8836036E0,1.8005269E0,5.083077E0,1.0260894E0,4.0569873E0],"tree_param":{"num_deleted":"0","num_feature":"19","num_nodes":"7","size_leaf_vector":"1"}},{"base_weights":[5.4266127E-3,3.6581308E-2,-3.6694117E-2,2.8013375E-2,-7.6053426E-2,2.7514767E-2,-1.2537147E-1,-7.779525E-2,-2.7227722E-2,-5.013771E-2,2.3773884E-2],"categories":[],"categories_nodes":[],"categories_segments":[],"categories_sizes":[],"default_left":[0,0,0,0,0,0,0,0,0,0,0],"id":85,"left_children":[1,-1,3,-1,5,-1,7,-1,9,-1,-1],"loss_changes":[5.1521644E-2,0E0,4.7084875E-2,0E0,6.5666884E-2,0E0,6.500496E-2,0E0,7.7013455E-2,0E0,0E0],"parents":[2147483647,0,0,2,2,4,4,6,6,8,8],"right_children":[2,-1,4,-1,6,-1,8,-1,10,-1,-1],"split_conditions":[1E0,3.6581308E-2,7.8389335E-1,2.8013375E-2,8.948262E-1,2.7514767E-2,8.7040293E-1,-7.779525E-2,9.9636686E-1,-5.013771E-2,2.3773884E-2],"split_indices":[14,0,4,0,12,0,0,0,8,0,0],"split_type":[0,0,0,0,0,0,0,0,0,0,0],"sum_hessian":[8.586742E0,1.7768372E0,6.8099055E0,1.2631346E0,5.546771E0,1.0648156E0,4.481955E0,1.2008375E0,3.2811177E0,1.1718137E0,2.109304E0],"tree_param":{"num_deleted":"0","num_feature":"19","num_nodes":"11","size_leaf_vector":"1"}},{"base_weights":[-3.214587E-2,3.1300753E-2,-3.65547E-2],"categories":[],"categories_nodes":[],"categories_segments":[],"categories_sizes":[],"default_left":[0,0,0],"id":86,"left_children":[1,-1,-1],"loss_changes":[5.797649E-2,0E0,0E0],"parents":[2147483647,0,0],"right_children":[2,-1,-1],"split_conditions":[6.1091924E-1,3.1300753E-2,-3.65547E-2],"split_indices":[16,0,0],"split_type":[0,0,0],"sum_hessian":[2.697123E0,1.0049642E0,1.6921589E0],"tree_param":{"num_deleted":"0","num_feature":"19","num_nodes":"3","size_leaf_vector":"1"}},{"base_weights":[6.8501155E-3,3.7056927E-2,-3.623874E-2,2.329952E-2,-6.87068E-2,6.9389814E-3,-1.0375027E-1,4.0317113E-3,-4.1606415E-2],"categories":[],"categories_nodes":[],"categories_segments":[],"categories_sizes":[],"default_left":[0,0,0,0,0,0,0,0,0],"id":87,"left_children":[1,-1,3,-1,5,-1,7,-1,-1],"loss_changes":[5.1077366E-2,0E0,3.323076E-2,0E0,2.2997284E-2,0E0,2.1577187E-2,0E0,0E0],"parents":[2147483647,0,0,2,2,4,4,6,6],"right_children":[2,-1,4,-1,6,-1,8,-1,-1],"split_conditions":[1E0,3.7056927E-2,1E0,2.329952E-2,8.7040293E-1,6.9389814E-3,9.8850006E-1,4.0317113E-3,-4.1606415E-2],"split_indices":[11,0,9,0,0,0,13,0,0],"split_type":[0,0,0,0,0,0,0,0,0],"sum_hessian":[8.269588E0,1.7269013E0,6.5426874E0,1.1425104E0,5.400177E0,1.5853888E0,3.8147883E0,1.0174321E0,2.7973564E0],"tree_param":{"num_deleted":"0","num_feature":"19","num_nodes":"9","size_leaf_vector":"1"}},{"base_weights":[4.602758E-3,-4.0644158E-2,4.167953E-2,4.493278E-2,-2.2191054E-3,3.583697E-2,-5.0617225E-2,-6.8027124E-2,4.4815276E-2,-1.9942021E-2,2.9785309E-2],"categories":[],"categories_nodes":[],"categories_segments":[],"categories_sizes":[],"default_left":[0,0,0,0,0,0,0,0,0,0,0],"id":88,"left_children":[1,-1,3,-1,5,-1,7,-1,9,-1,-1],"loss_changes":[5.4659914E-2,0E0,3.936972E-2,0E0,4.6302862E-2,0E0,1.0417831E-1,0E0,3.365105E-2,0E0,0E0],"parents":[2147483647,0,0,2,2,4,4,6,6,8,8],"right_children":[2,-1,4,-1,6,-1,8,-1,10,-1,-1],"split_conditions":[9.673229E-1,-4.0644158E-2,1E0,4.493278E-2,8.948262E-1,3.583697E-2,8.7040293E-1,-6.8027124E-2,9.9636686E-1,-1.9942021E-2,2.9785309E-2],"split_indices":[15,0,14,0,12,0,0,0,8,0,0],"split_type":[0,0,0,0,0,0,0,0,0,0,0],"sum_hessian":[8.436791E0,1.2102348E0,7.226557E0,1.3905632E0,5.835994E0,1.242947E0,4.5930467E0,1.1304588E0,3.4625878E0,1.0654082E0,2.3971798E0],"tree_param":{"num_deleted":"0","num_feature":"19","num_nodes":"11","size_leaf_vector":"1"}},{"base_weights":[-2.949905E-2,2.8608637E-2,-3.6781702E-2],"categories":[],"categories_nodes":[],"categories_segments":[],"categories_sizes":[],"default_left":[0,0,0],"id":89,"left_children":[1,-1,-1],"loss_changes":[5.383354E-2,0E0,0E0],"parents":[2147483647,0,0],"right_children":[2,-1,-1],"split_conditions":[1E0,2.8608637E-2,-3.6781702E-2],"split_indices":[8,0,0],"split_type":[0,0,0],"sum_hessian":[2.6249588E0,1.1109234E0,1.5140352E0],"tree_param":{"num_deleted":"0","num_feature":"19","num_nodes":"3","size_leaf_vector":"1"}},{"base_weights":[8.478778E-3,-3.5469446E-2,4.8821744E-2,-2.5006065E-2,9.365021E-2,-1.9874124E-2,1.3735159E-1,3.4464553E-3,5.1266614E-2],"categories":[],"categories_nodes":[],"categories_segments":[],"categories_sizes":[],"default_left":[0,0,0,0,0,0,0,0,0],"id":90,"left_children":[1,-1,3,-1,5,-1,7,-1,-1],"loss_changes":[5.2569866E-2,0E0,5.3143486E-2,0E0,5.231584E-2,0E0,1.9912757E-2,0E0,0E0],"parents":[2147483647,0,0,2,2,4,4,6,6],"right_children":[2,-1,4,-1,6,-1,8,-1,-1],"split_conditions":[8.9098287E-1,-3.5469446E-2,1E0,-2.5006065E-2,9.27825E-1,-1.9874124E-2,9.873484E-1,3.4464553E-3,5.1266614E-2],"split_indices":[8,0,1,0,16,0,14,0,0],"split_type":[0,0,0,0,0,0,0,0,0],"sum_hessian":[8.154696E0,1.5030905E0,6.651606E0,1.4669529E0,5.184653E0,1.0021225E0,4.1825304E0,1.162451E0,3.0200794E0],"tree_param":{"num_deleted":"0","num_feature":"19","num_nodes":"9","size_leaf_vector":"1"}},{"base_weights":[1.7031704E-3,4.3958023E-2,-3.6813796E-2,3.624183E-2,-8.143739E-2,1.6944926E-2,-1.2460193E-1,2.644677E-3,-4.8067026E-2],"categories":[],"categories_nodes":[],"categories_segments":[],"categories_sizes":[],"default_left":[0,0,0,0,0,0,0,0,0],"id":91,"left_children":[1,-1,3,-1,5,-1,7,-1,-1],"loss_changes":[5.744554E-2,0E0,6.73032E-2,0E0,4.8501085E-2,0E0,2.8105132E-2,0E0,0E0],"parents":[2147483647,0,0,2,2,4,4,6,6],"right_children":[2,-1,4,-1,6,-1,8,-1,-1],"split_conditions":[7.165124E-1,4.3958023E-2,9.9606556E-1,3.624183E-2,8.9598787E-1,1.6944926E-2,9.873484E-1,2.644677E-3,-4.8067026E-2],"split_indices":[0,0,18,0,6,0,14,0,0],"split_type":[0,0,0,0,0,0,0,0,0],"sum_hessian":[8.331266E0,1.161147E0,7.1701193E0,1.2053488E0,5.9647703E0,1.3482509E0,4.6165195E0,1.1314144E0,3.485105E0],"tree_param":{"num_deleted":"0","num_feature":"19","num_nodes":"9","size_leaf_vector":"1"}},{"base_weights":[-2.6083319E-2,3.0234875E-2,-3.4469735E-2],"categories":[],"categories_nodes":[],"categories_segments":[],"categories_sizes":[],"default_left":[0,0,0],